digraph Tree {
node [shape=box, style="filled, rounded", color="black", fontname=helvetica] ;
edge [fontname=helvetica] ;
0 [label="X[4] <= 429750.0\ngini = 0.646\nsamples = 491694\nvalue = [146020, 329543, 290355, 8971, 812, 287, 222, 1505]", fillcolor="#fbfdef"] ;
1 [label="X[13] <= 0.5\ngini = 0.645\nsamples = 479051\nvalue = [142004, 322811, 281586, 8728, 797, 275, 210, 1362]", fillcolor="#fafdee"] ;
0 -> 1 [labeldistance=2.5, labelangle=45, headlabel="True"] ;
2 [label="X[9] <= -9647.5\ngini = 0.643\nsamples = 336930\nvalue = [97466, 229944, 197659, 6260, 592, 200, 138, 859]", fillcolor="#fafcec"] ;
1 -> 2 ;
3 [label="X[4] <= 245250.0\ngini = 0.642\nsamples = 327117\nvalue = [94442, 224653, 190805, 5912, 580, 197, 129, 835]", fillcolor="#f9fcea"] ;
2 -> 3 ;
4 [label="X[3] <= 3.5\ngini = 0.64\nsamples = 264581\nvalue = [74330, 183992, 153972, 4801, 435, 174, 101, 705]", fillcolor="#f9fce9"] ;
3 -> 4 ;
5 [label="gini = 0.639\nsamples = 263743\nvalue = [73878, 183655, 153467, 4782, 434, 171, 101, 705]", fillcolor="#f9fce8"] ;
4 -> 5 ;
6 [label="gini = 0.669\nsamples = 838\nvalue = [452, 337, 505, 19, 1, 3, 0, 0]", fillcolor="#f4fdf3"] ;
4 -> 6 ;
7 [label="X[4] <= 393750.0\ngini = 0.652\nsamples = 62536\nvalue = [20112, 40661, 36833, 1111, 145, 23, 28, 130]", fillcolor="#fcfdf3"] ;
3 -> 7 ;
8 [label="gini = 0.65\nsamples = 58709\nvalue = [18328, 38298, 34969, 1079, 138, 23, 28, 130]", fillcolor="#fcfef4"] ;
7 -> 8 ;
9 [label="gini = 0.666\nsamples = 3827\nvalue = [1784, 2363, 1864, 32, 7, 0, 0, 0]", fillcolor="#f8fce7"] ;
7 -> 9 ;
10 [label="X[9] <= -9316.5\ngini = 0.652\nsamples = 9813\nvalue = [3024, 5291, 6854, 348, 12, 3, 9, 24]", fillcolor="#e3fbe1"] ;
2 -> 10 ;
11 [label="X[3] <= 0.5\ngini = 0.661\nsamples = 3200\nvalue = [1209, 1483, 2222, 103, 2, 1, 2, 16]", fillcolor="#d9fad6"] ;
10 -> 11 ;
12 [label="gini = 0.647\nsamples = 2105\nvalue = [613, 1191, 1458, 75, 0, 0, 0, 0]", fillcolor="#e8fce6"] ;
11 -> 12 ;
13 [label="gini = 0.646\nsamples = 1095\nvalue = [596, 292, 764, 28, 2, 1, 2, 16]", fillcolor="#e3fbe1"] ;
11 -> 13 ;
14 [label="X[5] <= 1.5\ngini = 0.645\nsamples = 6613\nvalue = [1815, 3808, 4632, 245, 10, 2, 7, 8]", fillcolor="#e8fce7"] ;
10 -> 14 ;
15 [label="gini = 0.616\nsamples = 1816\nvalue = [476, 900, 1501, 44, 0, 0, 0, 8]", fillcolor="#c8f7c4"] ;
14 -> 15 ;
16 [label="gini = 0.652\nsamples = 4797\nvalue = [1339, 2908, 3131, 201, 10, 2, 7, 0]", fillcolor="#f6fef6"] ;
14 -> 16 ;
17 [label="X[8] <= 0.5\ngini = 0.65\nsamples = 142121\nvalue = [44538, 92867, 83927, 2468, 205, 75, 72, 503]", fillcolor="#fcfdf2"] ;
1 -> 17 ;
18 [label="X[12] <= 0.5\ngini = 0.661\nsamples = 525\nvalue = [293, 301, 223, 0, 0, 0, 0, 0]", fillcolor="#fefffc"] ;
17 -> 18 ;
19 [label="X[9] <= -12662.0\ngini = 0.65\nsamples = 283\nvalue = [194, 121, 129, 0, 0, 0, 0, 0]", fillcolor="#fae5d6"] ;
18 -> 19 ;
20 [label="gini = 0.651\nsamples = 209\nvalue = [74, 121, 125, 0, 0, 0, 0, 0]", fillcolor="#fbfefb"] ;
19 -> 20 ;
21 [label="gini = 0.062\nsamples = 74\nvalue = [120, 0, 4, 0, 0, 0, 0, 0]", fillcolor="#e68540"] ;
19 -> 21 ;
22 [label="X[7] <= 1.5\ngini = 0.633\nsamples = 242\nvalue = [99, 180, 94, 0, 0, 0, 0, 0]", fillcolor="#eff7c4"] ;
18 -> 22 ;
23 [label="gini = 0.611\nsamples = 152\nvalue = [93, 112, 35, 0, 0, 0, 0, 0]", fillcolor="#f8fce5"] ;
22 -> 23 ;
24 [label="gini = 0.54\nsamples = 90\nvalue = [6, 68, 59, 0, 0, 0, 0, 0]", fillcolor="#f8fce7"] ;
22 -> 24 ;
25 [label="X[4] <= 132750.0\ngini = 0.65\nsamples = 141596\nvalue = [44245, 92566, 83704, 2468, 205, 75, 72, 503]", fillcolor="#fcfdf2"] ;
17 -> 25 ;
26 [label="X[7] <= 1.5\ngini = 0.639\nsamples = 41623\nvalue = [11699, 29657, 23828, 756, 56, 21, 21, 213]", fillcolor="#f7fbe4"] ;
25 -> 26 ;
27 [label="gini = 0.645\nsamples = 33017\nvalue = [9999, 22880, 18795, 565, 39, 19, 15, 159]", fillcolor="#f8fce7"] ;
26 -> 27 ;
28 [label="gini = 0.609\nsamples = 8606\nvalue = [1700, 6777, 5033, 191, 17, 2, 6, 54]", fillcolor="#f4fad8"] ;
26 -> 28 ;
29 [label="X[10] <= -2606.0\ngini = 0.653\nsamples = 99973\nvalue = [32546, 62909, 59876, 1712, 149, 54, 51, 290]", fillcolor="#fdfef9"] ;
25 -> 29 ;
30 [label="gini = 0.656\nsamples = 39019\nvalue = [13864, 25336, 21615, 538, 41, 2, 0, 72]", fillcolor="#fafded"] ;
29 -> 30 ;
31 [label="gini = 0.651\nsamples = 60954\nvalue = [18682, 37573, 38261, 1174, 108, 52, 51, 218]", fillcolor="#fdfffd"] ;
29 -> 31 ;
32 [label="X[15] <= 3.5\ngini = 0.652\nsamples = 12643\nvalue = [4016, 6732, 8769, 243, 15, 12, 12, 143]", fillcolor="#e3fbe0"] ;
0 -> 32 [labeldistance=2.5, labelangle=-45, headlabel="False"] ;
33 [label="X[7] <= 3.5\ngini = 0.648\nsamples = 10939\nvalue = [3633, 5389, 7888, 196, 10, 9, 9, 109]", fillcolor="#d8fad5"] ;
32 -> 33 ;
34 [label="X[0] <= 0.5\ngini = 0.65\nsamples = 10790\nvalue = [3588, 5386, 7699, 196, 10, 9, 9, 109]", fillcolor="#dafad8"] ;
33 -> 34 ;
35 [label="X[14] <= 0.5\ngini = 0.655\nsamples = 5588\nvalue = [1885, 3051, 3709, 78, 5, 4, 6, 44]", fillcolor="#eafce8"] ;
34 -> 35 ;
36 [label="gini = 0.659\nsamples = 4435\nvalue = [1515, 2569, 2763, 53, 5, 4, 6, 44]", fillcolor="#f7fef6"] ;
35 -> 36 ;
37 [label="gini = 0.619\nsamples = 1153\nvalue = [370, 482, 946, 25, 0, 0, 0, 0]", fillcolor="#bff6ba"] ;
35 -> 37 ;
38 [label="X[9] <= -19422.5\ngini = 0.641\nsamples = 5202\nvalue = [1703, 2335, 3990, 118, 5, 5, 3, 65]", fillcolor="#cbf8c7"] ;
34 -> 38 ;
39 [label="gini = 0.614\nsamples = 599\nvalue = [395, 128, 405, 1, 0, 1, 2, 1]", fillcolor="#fcfffb"] ;
38 -> 39 ;
40 [label="gini = 0.634\nsamples = 4603\nvalue = [1308, 2207, 3585, 117, 5, 4, 1, 64]", fillcolor="#cdf8c9"] ;
38 -> 40 ;
41 [label="X[5] <= 1.5\ngini = 0.328\nsamples = 149\nvalue = [45, 3, 189, 0, 0, 0, 0, 0]", fillcolor="#75ec6a"] ;
33 -> 41 ;
42 [label="X[1] <= 0.5\ngini = 0.18\nsamples = 86\nvalue = [13, 0, 117, 0, 0, 0, 0, 0]", fillcolor="#5be84f"] ;
41 -> 42 ;
43 [label="gini = 0.193\nsamples = 25\nvalue = [4, 0, 33, 0, 0, 0, 0, 0]", fillcolor="#5de851"] ;
42 -> 43 ;
44 [label="gini = 0.175\nsamples = 61\nvalue = [9, 0, 84, 0, 0, 0, 0, 0]", fillcolor="#5be84e"] ;
42 -> 44 ;
45 [label="gini = 0.457\nsamples = 63\nvalue = [32, 3, 72, 0, 0, 0, 0, 0]", fillcolor="#9df195"] ;
41 -> 45 ;
46 [label="X[6] <= 3.0\ngini = 0.625\nsamples = 1704\nvalue = [383, 1343, 881, 47, 5, 3, 3, 34]", fillcolor="#f1f8cd"] ;
32 -> 46 ;
47 [label="X[0] <= 0.5\ngini = 0.58\nsamples = 1165\nvalue = [184, 1057, 506, 40, 5, 3, 3, 34]", fillcolor="#e8f4ad"] ;
46 -> 47 ;
48 [label="X[4] <= 495000.0\ngini = 0.674\nsamples = 175\nvalue = [71, 115, 84, 9, 0, 0, 0, 0]", fillcolor="#f6fbe0"] ;
47 -> 48 ;
49 [label="gini = 0.55\nsamples = 83\nvalue = [70, 0, 60, 8, 0, 0, 0, 0]", fillcolor="#fcefe6"] ;
48 -> 49 ;
50 [label="gini = 0.306\nsamples = 92\nvalue = [1, 115, 24, 1, 0, 0, 0, 0]", fillcolor="#d4eb65"] ;
48 -> 50 ;
51 [label="X[1] <= 0.5\ngini = 0.552\nsamples = 990\nvalue = [113, 942, 422, 31, 5, 3, 3, 34]", fillcolor="#e6f3a4"] ;
47 -> 51 ;
52 [label="gini = 0.511\nsamples = 481\nvalue = [84, 494, 186, 0, 0, 0, 0, 0]", fillcolor="#e2f195"] ;
51 -> 52 ;
53 [label="gini = 0.583\nsamples = 509\nvalue = [29, 448, 236, 31, 5, 3, 3, 34]", fillcolor="#eaf5b3"] ;
51 -> 53 ;
54 [label="X[1] <= 0.5\ngini = 0.651\nsamples = 539\nvalue = [199, 286, 375, 7, 0, 0, 0, 0]", fillcolor="#e3fbe1"] ;
46 -> 54 ;
55 [label="X[9] <= -18256.0\ngini = 0.327\nsamples = 71\nvalue = [93, 3, 20, 0, 0, 0, 0, 0]", fillcolor="#eb9f68"] ;
54 -> 55 ;
56 [label="gini = 0.177\nsamples = 56\nvalue = [85, 3, 6, 0, 0, 0, 0, 0]", fillcolor="#e88e4d"] ;
55 -> 56 ;
57 [label="gini = 0.463\nsamples = 15\nvalue = [8, 0, 14, 0, 0, 0, 0, 0]", fillcolor="#b0f4aa"] ;
55 -> 57 ;
58 [label="X[10] <= -6090.0\ngini = 0.615\nsamples = 468\nvalue = [106, 283, 355, 7, 0, 0, 0, 0]", fillcolor="#e3fbe1"] ;
54 -> 58 ;
59 [label="gini = 0.528\nsamples = 170\nvalue = [6, 130, 135, 2, 0, 0, 0, 0]", fillcolor="#f9fef8"] ;
58 -> 59 ;
60 [label="gini = 0.642\nsamples = 298\nvalue = [100, 153, 220, 5, 0, 0, 0, 0]", fillcolor="#d9fad6"] ;
58 -> 60 ;
}