digraph Tree {
node [shape=box, style="filled, rounded", color="black", fontname=helvetica] ;
edge [fontname=helvetica] ;
0 [label="X[17] <= 16.5\nmse = 0.163\nsamples = 23103\nvalue = 0.51", fillcolor="#fdf4ed"] ;
1 [label="X[17] <= 10.5\nmse = 0.166\nsamples = 7988\nvalue = 0.646", fillcolor="#fcf0e8"] ;
0 -> 1 [labeldistance=2.5, labelangle=45, headlabel="True"] ;
2 [label="X[17] <= 1.5\nmse = 0.16\nsamples = 5034\nvalue = 0.68", fillcolor="#fcf0e7"] ;
1 -> 2 ;
3 [label="X[10] <= -2134.5\nmse = 0.196\nsamples = 551\nvalue = 0.622", fillcolor="#fcf1e9"] ;
2 -> 3 ;
4 [label="X[10] <= -4491.0\nmse = 0.185\nsamples = 147\nvalue = 0.692", fillcolor="#fcefe7"] ;
3 -> 4 ;
5 [label="X[2] <= 0.5\nmse = 0.199\nsamples = 56\nvalue = 0.567", fillcolor="#fcf2eb"] ;
4 -> 5 ;
6 [label="X[4] <= 78750.0\nmse = 0.188\nsamples = 13\nvalue = 0.315", fillcolor="#fef8f4"] ;
5 -> 6 ;
7 [label="mse = 0.0\nsamples = 2\nvalue = 1.0", fillcolor="#fae9dc"] ;
6 -> 7 ;
8 [label="X[10] <= -4920.5\nmse = 0.125\nsamples = 11\nvalue = 0.196", fillcolor="#fefbf8"] ;
6 -> 8 ;
9 [label="X[10] <= -6536.5\nmse = 0.069\nsamples = 10\nvalue = 0.119", fillcolor="#fefcfb"] ;
8 -> 9 ;
10 [label="mse = 0.0\nsamples = 4\nvalue = 0.0", fillcolor="#ffffff"] ;
9 -> 10 ;
11 [label="X[10] <= -5792.5\nmse = 0.107\nsamples = 6\nvalue = 0.227", fillcolor="#fefaf7"] ;
9 -> 11 ;
12 [label="mse = 0.0\nsamples = 2\nvalue = 0.5", fillcolor="#fdf4ed"] ;
11 -> 12 ;
13 [label="X[9] <= -15642.0\nmse = 0.109\nsamples = 4\nvalue = 0.125", fillcolor="#fefcfb"] ;
11 -> 13 ;
14 [label="mse = 0.122\nsamples = 3\nvalue = 0.143", fillcolor="#fefcfa"] ;
13 -> 14 ;
15 [label="mse = 0.0\nsamples = 1\nvalue = 0.0", fillcolor="#ffffff"] ;
13 -> 15 ;
16 [label="mse = 0.0\nsamples = 1\nvalue = 1.0", fillcolor="#fae9dc"] ;
8 -> 16 ;
17 [label="X[4] <= 213750.0\nmse = 0.169\nsamples = 43\nvalue = 0.664", fillcolor="#fcf0e8"] ;
5 -> 17 ;
18 [label="X[0] <= 0.5\nmse = 0.107\nsamples = 26\nvalue = 0.825", fillcolor="#fbece2"] ;
17 -> 18 ;
19 [label="X[10] <= -4792.0\nmse = 0.072\nsamples = 21\nvalue = 0.894", fillcolor="#fbebdf"] ;
18 -> 19 ;
20 [label="X[15] <= 0.5\nmse = 0.039\nsamples = 19\nvalue = 0.95", fillcolor="#fbeadd"] ;
19 -> 20 ;
21 [label="X[5] <= 2.0\nmse = 0.222\nsamples = 2\nvalue = 0.667", fillcolor="#fcf0e7"] ;
20 -> 21 ;
22 [label="mse = 0.0\nsamples = 1\nvalue = 1.0", fillcolor="#fae9dc"] ;
21 -> 22 ;
23 [label="mse = 0.0\nsamples = 1\nvalue = 0.0", fillcolor="#ffffff"] ;
21 -> 23 ;
24 [label="X[10] <= -5859.0\nmse = 0.009\nsamples = 17\nvalue = 0.981", fillcolor="#fae9dc"] ;
20 -> 24 ;
25 [label="mse = 0.0\nsamples = 14\nvalue = 1.0", fillcolor="#fae9dc"] ;
24 -> 25 ;
26 [label="X[10] <= -5569.5\nmse = 0.056\nsamples = 3\nvalue = 0.833", fillcolor="#fbece2"] ;
24 -> 26 ;
27 [label="mse = 0.0\nsamples = 1\nvalue = 0.5", fillcolor="#fdf4ed"] ;
26 -> 27 ;
28 [label="mse = 0.0\nsamples = 2\nvalue = 1.0", fillcolor="#fae9dc"] ;
26 -> 28 ;
29 [label="X[15] <= 3.5\nmse = 0.056\nsamples = 2\nvalue = 0.333", fillcolor="#fdf8f3"] ;
19 -> 29 ;
30 [label="mse = 0.0\nsamples = 1\nvalue = 0.0", fillcolor="#ffffff"] ;
29 -> 30 ;
31 [label="mse = 0.0\nsamples = 1\nvalue = 0.5", fillcolor="#fdf4ed"] ;
29 -> 31 ;
32 [label="X[6] <= 2.5\nmse = 0.143\nsamples = 5\nvalue = 0.5", fillcolor="#fdf4ed"] ;
18 -> 32 ;
33 [label="mse = 0.0\nsamples = 1\nvalue = 1.0", fillcolor="#fae9dc"] ;
32 -> 33 ;
34 [label="X[15] <= 10.0\nmse = 0.06\nsamples = 4\nvalue = 0.3", fillcolor="#fef8f4"] ;
32 -> 34 ;
35 [label="X[4] <= 123750.0\nmse = 0.056\nsamples = 3\nvalue = 0.167", fillcolor="#fefbf9"] ;
34 -> 35 ;
36 [label="mse = 0.0\nsamples = 2\nvalue = 0.0", fillcolor="#ffffff"] ;
35 -> 36 ;
37 [label="mse = 0.0\nsamples = 1\nvalue = 0.5", fillcolor="#fdf4ed"] ;
35 -> 37 ;
38 [label="mse = 0.0\nsamples = 1\nvalue = 0.5", fillcolor="#fdf4ed"] ;
34 -> 38 ;
39 [label="X[9] <= -13976.5\nmse = 0.172\nsamples = 17\nvalue = 0.45", fillcolor="#fdf5ef"] ;
17 -> 39 ;
40 [label="X[15] <= 11.5\nmse = 0.158\nsamples = 15\nvalue = 0.54", fillcolor="#fcf3ec"] ;
39 -> 40 ;
41 [label="X[17] <= 0.5\nmse = 0.062\nsamples = 8\nvalue = 0.75", fillcolor="#fceee5"] ;
40 -> 41 ;
42 [label="mse = 0.0\nsamples = 4\nvalue = 1.0", fillcolor="#fae9dc"] ;
41 -> 42 ;
43 [label="X[9] <= -15118.5\nmse = 0.031\nsamples = 4\nvalue = 0.571", fillcolor="#fcf2eb"] ;
41 -> 43 ;
44 [label="mse = 0.0\nsamples = 3\nvalue = 0.5", fillcolor="#fdf4ed"] ;
43 -> 44 ;
45 [label="mse = 0.0\nsamples = 1\nvalue = 1.0", fillcolor="#fae9dc"] ;
43 -> 45 ;
46 [label="X[9] <= -19326.0\nmse = 0.169\nsamples = 7\nvalue = 0.346", fillcolor="#fdf7f3"] ;
40 -> 46 ;
47 [label="X[17] <= 0.5\nmse = 0.167\nsamples = 5\nvalue = 0.5", fillcolor="#fdf4ed"] ;
46 -> 47 ;
48 [label="mse = 0.0\nsamples = 1\nvalue = 1.0", fillcolor="#fae9dc"] ;
47 -> 48 ;
49 [label="X[5] <= 2.0\nmse = 0.122\nsamples = 4\nvalue = 0.357", fillcolor="#fdf7f2"] ;
47 -> 49 ;
50 [label="mse = 0.0\nsamples = 2\nvalue = 0.0", fillcolor="#ffffff"] ;
49 -> 50 ;
51 [label="X[7] <= 2.5\nmse = 0.047\nsamples = 2\nvalue = 0.625", fillcolor="#fcf1e9"] ;
49 -> 51 ;
52 [label="mse = 0.0\nsamples = 1\nvalue = 0.5", fillcolor="#fdf4ed"] ;
51 -> 52 ;
53 [label="mse = 0.0\nsamples = 1\nvalue = 1.0", fillcolor="#fae9dc"] ;
51 -> 53 ;
54 [label="mse = 0.0\nsamples = 2\nvalue = 0.0", fillcolor="#ffffff"] ;
46 -> 54 ;
55 [label="mse = 0.0\nsamples = 2\nvalue = 0.0", fillcolor="#ffffff"] ;
39 -> 55 ;
56 [label="X[8] <= 3.0\nmse = 0.156\nsamples = 91\nvalue = 0.781", fillcolor="#fbede3"] ;
4 -> 56 ;
57 [label="X[10] <= -4464.0\nmse = 0.136\nsamples = 84\nvalue = 0.816", fillcolor="#fbede2"] ;
56 -> 57 ;
58 [label="mse = 0.0\nsamples = 1\nvalue = 1.5", fillcolor="#f8ddca"] ;
57 -> 58 ;
59 [label="X[9] <= -11401.0\nmse = 0.131\nsamples = 83\nvalue = 0.806", fillcolor="#fbede3"] ;
57 -> 59 ;
60 [label="X[4] <= 586125.0\nmse = 0.12\nsamples = 71\nvalue = 0.835", fillcolor="#fbece2"] ;
59 -> 60 ;
61 [label="X[4] <= 200250.0\nmse = 0.114\nsamples = 70\nvalue = 0.843", fillcolor="#fbece1"] ;
60 -> 61 ;
62 [label="X[7] <= 0.5\nmse = 0.143\nsamples = 39\nvalue = 0.782", fillcolor="#fbede3"] ;
61 -> 62 ;
63 [label="X[0] <= 0.5\nmse = 0.062\nsamples = 4\nvalue = 0.25", fillcolor="#fef9f6"] ;
62 -> 63 ;
64 [label="mse = 0.0\nsamples = 1\nvalue = 0.0", fillcolor="#ffffff"] ;
63 -> 64 ;
65 [label="X[16] <= 3.5\nmse = 0.056\nsamples = 3\nvalue = 0.333", fillcolor="#fdf8f3"] ;
63 -> 65 ;
66 [label="mse = 0.062\nsamples = 2\nvalue = 0.25", fillcolor="#fef9f6"] ;
65 -> 66 ;
67 [label="mse = 0.0\nsamples = 1\nvalue = 0.5", fillcolor="#fdf4ed"] ;
65 -> 67 ;
68 [label="X[10] <= -2457.0\nmse = 0.126\nsamples = 35\nvalue = 0.824", fillcolor="#fbede2"] ;
62 -> 68 ;
69 [label="X[4] <= 189000.0\nmse = 0.107\nsamples = 27\nvalue = 0.895", fillcolor="#fbebdf"] ;
68 -> 69 ;
70 [label="X[10] <= -4421.5\nmse = 0.088\nsamples = 26\nvalue = 0.919", fillcolor="#fbeadf"] ;
69 -> 70 ;
71 [label="mse = 0.0\nsamples = 1\nvalue = 0.0", fillcolor="#ffffff"] ;
70 -> 71 ;
72 [label="X[16] <= 4.5\nmse = 0.066\nsamples = 25\nvalue = 0.944", fillcolor="#fbeade"] ;
70 -> 72 ;
73 [label="X[15] <= 2.5\nmse = 0.058\nsamples = 24\nvalue = 0.971", fillcolor="#fbe9dd"] ;
72 -> 73 ;
74 [label="X[16] <= 1.5\nmse = 0.06\nsamples = 4\nvalue = 0.7", fillcolor="#fcefe6"] ;
73 -> 74 ;
75 [label="mse = 0.0\nsamples = 1\nvalue = 0.5", fillcolor="#fdf4ed"] ;
74 -> 75 ;
76 [label="X[10] <= -3921.5\nmse = 0.056\nsamples = 3\nvalue = 0.833", fillcolor="#fbece2"] ;
74 -> 76 ;
77 [label="mse = 0.0\nsamples = 1\nvalue = 0.5", fillcolor="#fdf4ed"] ;
76 -> 77 ;
78 [label="mse = 0.0\nsamples = 2\nvalue = 1.0", fillcolor="#fae9dc"] ;
76 -> 78 ;
79 [label="X[7] <= 2.5\nmse = 0.043\nsamples = 20\nvalue = 1.017", fillcolor="#fae8db"] ;
73 -> 79 ;
80 [label="X[0] <= 0.5\nmse = 0.009\nsamples = 18\nvalue = 0.981", fillcolor="#fae9dc"] ;
79 -> 80 ;
81 [label="mse = 0.0\nsamples = 13\nvalue = 1.0", fillcolor="#fae9dc"] ;
80 -> 81 ;
82 [label="X[13] <= 0.5\nmse = 0.035\nsamples = 5\nvalue = 0.917", fillcolor="#fbeadf"] ;
80 -> 82 ;
83 [label="mse = 0.0\nsamples = 3\nvalue = 1.0", fillcolor="#fae9dc"] ;
82 -> 83 ;
84 [label="X[3] <= 0.5\nmse = 0.062\nsamples = 2\nvalue = 0.75", fillcolor="#fceee5"] ;
82 -> 84 ;
85 [label="mse = 0.0\nsamples = 1\nvalue = 0.5", fillcolor="#fdf4ed"] ;
84 -> 85 ;
86 [label="mse = 0.0\nsamples = 1\nvalue = 1.0", fillcolor="#fae9dc"] ;
84 -> 86 ;
87 [label="X[10] <= -3050.0\nmse = 0.25\nsamples = 2\nvalue = 1.5", fillcolor="#f8ddca"] ;
79 -> 87 ;
88 [label="mse = 0.0\nsamples = 1\nvalue = 2.0", fillcolor="#f6d2b8"] ;
87 -> 88 ;
89 [label="mse = 0.0\nsamples = 1\nvalue = 1.0", fillcolor="#fae9dc"] ;
87 -> 89 ;
90 [label="mse = 0.0\nsamples = 1\nvalue = 0.5", fillcolor="#fdf4ed"] ;
72 -> 90 ;
91 [label="mse = 0.0\nsamples = 1\nvalue = 0.0", fillcolor="#ffffff"] ;
69 -> 91 ;
92 [label="X[0] <= 0.5\nmse = 0.121\nsamples = 8\nvalue = 0.615", fillcolor="#fcf1e9"] ;
68 -> 92 ;
93 [label="X[1] <= 0.5\nmse = 0.08\nsamples = 6\nvalue = 0.444", fillcolor="#fdf5ef"] ;
92 -> 93 ;
94 [label="X[16] <= 2.5\nmse = 0.031\nsamples = 5\nvalue = 0.571", fillcolor="#fcf2eb"] ;
93 -> 94 ;
95 [label="mse = 0.0\nsamples = 4\nvalue = 0.5", fillcolor="#fdf4ed"] ;
94 -> 95 ;
96 [label="mse = 0.0\nsamples = 1\nvalue = 1.0", fillcolor="#fae9dc"] ;
94 -> 96 ;
97 [label="mse = 0.0\nsamples = 1\nvalue = 0.0", fillcolor="#ffffff"] ;
93 -> 97 ;
98 [label="mse = 0.0\nsamples = 2\nvalue = 1.0", fillcolor="#fae9dc"] ;
92 -> 98 ;
99 [label="X[10] <= -3066.0\nmse = 0.076\nsamples = 31\nvalue = 0.906", fillcolor="#fbebdf"] ;
61 -> 99 ;
100 [label="X[10] <= -3821.0\nmse = 0.144\nsamples = 14\nvalue = 0.792", fillcolor="#fbede3"] ;
99 -> 100 ;
101 [label="X[6] <= 2.5\nmse = 0.016\nsamples = 7\nvalue = 0.967", fillcolor="#fbe9dd"] ;
100 -> 101 ;
102 [label="X[9] <= -14275.0\nmse = 0.056\nsamples = 3\nvalue = 0.833", fillcolor="#fbece2"] ;
101 -> 102 ;
103 [label="mse = 0.0\nsamples = 2\nvalue = 1.0", fillcolor="#fae9dc"] ;
102 -> 103 ;
104 [label="mse = 0.0\nsamples = 1\nvalue = 0.5", fillcolor="#fdf4ed"] ;
102 -> 104 ;
105 [label="mse = 0.0\nsamples = 4\nvalue = 1.0", fillcolor="#fae9dc"] ;
101 -> 105 ;
106 [label="X[10] <= -3490.5\nmse = 0.222\nsamples = 7\nvalue = 0.5", fillcolor="#fdf4ed"] ;
100 -> 106 ;
107 [label="mse = 0.0\nsamples = 2\nvalue = 0.0", fillcolor="#ffffff"] ;
106 -> 107 ;
108 [label="X[6] <= 2.5\nmse = 0.146\nsamples = 5\nvalue = 0.75", fillcolor="#fceee5"] ;
106 -> 108 ;
109 [label="X[17] <= 0.5\nmse = 0.167\nsamples = 3\nvalue = 0.5", fillcolor="#fdf4ed"] ;
108 -> 109 ;
110 [label="mse = 0.0\nsamples = 1\nvalue = 0.0", fillcolor="#ffffff"] ;
109 -> 110 ;
111 [label="X[3] <= 1.5\nmse = 0.062\nsamples = 2\nvalue = 0.75", fillcolor="#fceee5"] ;
109 -> 111 ;
112 [label="mse = 0.0\nsamples = 1\nvalue = 0.5", fillcolor="#fdf4ed"] ;
111 -> 112 ;
113 [label="mse = 0.0\nsamples = 1\nvalue = 1.0", fillcolor="#fae9dc"] ;
111 -> 113 ;
114 [label="mse = 0.0\nsamples = 2\nvalue = 1.0", fillcolor="#fae9dc"] ;
108 -> 114 ;
115 [label="mse = 0.0\nsamples = 17\nvalue = 1.0", fillcolor="#fae9dc"] ;
99 -> 115 ;
116 [label="mse = 0.0\nsamples = 1\nvalue = 0.0", fillcolor="#ffffff"] ;
60 -> 116 ;
117 [label="X[17] <= 0.5\nmse = 0.163\nsamples = 12\nvalue = 0.618", fillcolor="#fcf1e9"] ;
59 -> 117 ;
118 [label="X[3] <= 1.5\nmse = 0.16\nsamples = 4\nvalue = 0.2", fillcolor="#fefbf8"] ;
117 -> 118 ;
119 [label="mse = 0.0\nsamples = 3\nvalue = 0.0", fillcolor="#ffffff"] ;
118 -> 119 ;
120 [label="mse = 0.0\nsamples = 1\nvalue = 1.0", fillcolor="#fae9dc"] ;
118 -> 120 ;
121 [label="X[16] <= 2.5\nmse = 0.061\nsamples = 8\nvalue = 0.792", fillcolor="#fbede3"] ;
117 -> 121 ;
122 [label="X[4] <= 213750.0\nmse = 0.027\nsamples = 6\nvalue = 0.938", fillcolor="#fbeade"] ;
121 -> 122 ;
123 [label="mse = 0.0\nsamples = 5\nvalue = 1.0", fillcolor="#fae9dc"] ;
122 -> 123 ;
124 [label="mse = 0.0\nsamples = 1\nvalue = 0.5", fillcolor="#fdf4ed"] ;
122 -> 124 ;
125 [label="mse = 0.0\nsamples = 2\nvalue = 0.5", fillcolor="#fdf4ed"] ;
121 -> 125 ;
126 [label="X[16] <= 2.5\nmse = 0.173\nsamples = 7\nvalue = 0.278", fillcolor="#fef9f5"] ;
56 -> 126 ;
127 [label="X[17] <= 0.5\nmse = 0.031\nsamples = 5\nvalue = 0.071", fillcolor="#fffdfc"] ;
126 -> 127 ;
128 [label="mse = 0.0\nsamples = 3\nvalue = 0.0", fillcolor="#ffffff"] ;
127 -> 128 ;
129 [label="mse = 0.062\nsamples = 2\nvalue = 0.25", fillcolor="#fef9f6"] ;
127 -> 129 ;
130 [label="mse = 0.0\nsamples = 2\nvalue = 1.0", fillcolor="#fae9dc"] ;
126 -> 130 ;
131 [label="X[10] <= -1512.5\nmse = 0.197\nsamples = 404\nvalue = 0.596", fillcolor="#fcf2ea"] ;
3 -> 131 ;
132 [label="X[4] <= 114750.0\nmse = 0.214\nsamples = 76\nvalue = 0.475", fillcolor="#fdf4ee"] ;
131 -> 132 ;
133 [label="X[15] <= 13.5\nmse = 0.145\nsamples = 24\nvalue = 0.274", fillcolor="#fef9f5"] ;
132 -> 133 ;
134 [label="X[13] <= 0.5\nmse = 0.103\nsamples = 20\nvalue = 0.182", fillcolor="#fefbf9"] ;
133 -> 134 ;
135 [label="X[2] <= 0.5\nmse = 0.057\nsamples = 13\nvalue = 0.075", fillcolor="#fffdfc"] ;
134 -> 135 ;
136 [label="X[0] <= 0.5\nmse = 0.146\nsamples = 5\nvalue = 0.25", fillcolor="#fef9f6"] ;
135 -> 136 ;
137 [label="X[4] <= 72000.0\nmse = 0.04\nsamples = 4\nvalue = 0.1", fillcolor="#fffdfb"] ;
136 -> 137 ;
138 [label="mse = 0.0\nsamples = 1\nvalue = 0.5", fillcolor="#fdf4ed"] ;
137 -> 138 ;
139 [label="mse = 0.0\nsamples = 3\nvalue = 0.0", fillcolor="#ffffff"] ;
137 -> 139 ;
140 [label="mse = 0.0\nsamples = 1\nvalue = 1.0", fillcolor="#fae9dc"] ;
136 -> 140 ;
141 [label="mse = 0.0\nsamples = 8\nvalue = 0.0", fillcolor="#ffffff"] ;
135 -> 141 ;
142 [label="X[5] <= 3.0\nmse = 0.13\nsamples = 7\nvalue = 0.346", fillcolor="#fdf7f3"] ;
134 -> 142 ;
143 [label="mse = 0.0\nsamples = 2\nvalue = 0.0", fillcolor="#ffffff"] ;
142 -> 143 ;
144 [label="X[4] <= 90000.0\nmse = 0.111\nsamples = 5\nvalue = 0.5", fillcolor="#fdf4ed"] ;
142 -> 144 ;
145 [label="mse = 0.0\nsamples = 2\nvalue = 0.5", fillcolor="#fdf4ed"] ;
144 -> 145 ;
146 [label="X[15] <= 8.5\nmse = 0.167\nsamples = 3\nvalue = 0.5", fillcolor="#fdf4ed"] ;
144 -> 146 ;
147 [label="mse = 0.0\nsamples = 1\nvalue = 0.5", fillcolor="#fdf4ed"] ;
146 -> 147 ;
148 [label="mse = 0.25\nsamples = 2\nvalue = 0.5", fillcolor="#fdf4ed"] ;
146 -> 148 ;
149 [label="X[4] <= 96750.0\nmse = 0.154\nsamples = 4\nvalue = 0.611", fillcolor="#fcf1e9"] ;
133 -> 149 ;
150 [label="mse = 0.0\nsamples = 2\nvalue = 1.0", fillcolor="#fae9dc"] ;
149 -> 150 ;
151 [label="X[4] <= 108000.0\nmse = 0.06\nsamples = 2\nvalue = 0.3", fillcolor="#fef8f4"] ;
149 -> 151 ;
152 [label="mse = 0.0\nsamples = 1\nvalue = 0.5", fillcolor="#fdf4ed"] ;
151 -> 152 ;
153 [label="mse = 0.0\nsamples = 1\nvalue = 0.0", fillcolor="#ffffff"] ;
151 -> 153 ;
154 [label="X[9] <= -18699.0\nmse = 0.217\nsamples = 52\nvalue = 0.584", fillcolor="#fcf2ea"] ;
132 -> 154 ;
155 [label="X[10] <= -1689.0\nmse = 0.093\nsamples = 8\nvalue = 0.179", fillcolor="#fefbf9"] ;
154 -> 155 ;
156 [label="X[2] <= 0.5\nmse = 0.044\nsamples = 7\nvalue = 0.115", fillcolor="#fefcfb"] ;
155 -> 156 ;
157 [label="X[17] <= 0.5\nmse = 0.047\nsamples = 2\nvalue = 0.375", fillcolor="#fdf7f2"] ;
156 -> 157 ;
158 [label="mse = 0.0\nsamples = 1\nvalue = 0.0", fillcolor="#ffffff"] ;
157 -> 158 ;
159 [label="mse = 0.0\nsamples = 1\nvalue = 0.5", fillcolor="#fdf4ed"] ;
157 -> 159 ;
160 [label="mse = 0.0\nsamples = 5\nvalue = 0.0", fillcolor="#ffffff"] ;
156 -> 160 ;
161 [label="mse = 0.0\nsamples = 1\nvalue = 1.0", fillcolor="#fae9dc"] ;
155 -> 161 ;
162 [label="X[10] <= -1675.0\nmse = 0.2\nsamples = 44\nvalue = 0.675", fillcolor="#fcf0e7"] ;
154 -> 162 ;
163 [label="X[16] <= 1.5\nmse = 0.15\nsamples = 33\nvalue = 0.826", fillcolor="#fbece2"] ;
162 -> 163 ;
164 [label="X[9] <= -10369.5\nmse = 0.172\nsamples = 3\nvalue = 0.375", fillcolor="#fdf7f2"] ;
163 -> 164 ;
165 [label="X[1] <= 0.5\nmse = 0.062\nsamples = 2\nvalue = 0.75", fillcolor="#fceee5"] ;
164 -> 165 ;
166 [label="mse = 0.0\nsamples = 1\nvalue = 0.5", fillcolor="#fdf4ed"] ;
165 -> 166 ;
167 [label="mse = 0.0\nsamples = 1\nvalue = 1.0", fillcolor="#fae9dc"] ;
165 -> 167 ;
168 [label="mse = 0.0\nsamples = 1\nvalue = 0.0", fillcolor="#ffffff"] ;
164 -> 168 ;
169 [label="X[7] <= 0.5\nmse = 0.125\nsamples = 30\nvalue = 0.872", fillcolor="#fbebe0"] ;
163 -> 169 ;
170 [label="X[2] <= 0.5\nmse = 0.222\nsamples = 3\nvalue = 0.333", fillcolor="#fdf8f3"] ;
169 -> 170 ;
171 [label="mse = 0.0\nsamples = 1\nvalue = 1.0", fillcolor="#fae9dc"] ;
170 -> 171 ;
172 [label="mse = 0.0\nsamples = 2\nvalue = 0.0", fillcolor="#ffffff"] ;
170 -> 172 ;
173 [label="X[9] <= -16072.5\nmse = 0.09\nsamples = 27\nvalue = 0.917", fillcolor="#fbeadf"] ;
169 -> 173 ;
174 [label="X[15] <= 6.0\nmse = 0.194\nsamples = 6\nvalue = 0.643", fillcolor="#fcf1e8"] ;
173 -> 174 ;
175 [label="mse = 0.0\nsamples = 2\nvalue = 1.0", fillcolor="#fae9dc"] ;
174 -> 175 ;
176 [label="X[0] <= 0.5\nmse = 0.172\nsamples = 4\nvalue = 0.375", fillcolor="#fdf7f2"] ;
174 -> 176 ;
177 [label="X[9] <= -17295.5\nmse = 0.062\nsamples = 2\nvalue = 0.75", fillcolor="#fceee5"] ;
176 -> 177 ;
178 [label="mse = 0.0\nsamples = 1\nvalue = 0.5", fillcolor="#fdf4ed"] ;
177 -> 178 ;
179 [label="mse = 0.0\nsamples = 1\nvalue = 1.0", fillcolor="#fae9dc"] ;
177 -> 179 ;
180 [label="mse = 0.0\nsamples = 2\nvalue = 0.0", fillcolor="#ffffff"] ;
176 -> 180 ;
181 [label="X[7] <= 2.0\nmse = 0.043\nsamples = 21\nvalue = 0.983", fillcolor="#fae9dc"] ;
173 -> 181 ;
182 [label="X[9] <= -14895.5\nmse = 0.009\nsamples = 19\nvalue = 1.019", fillcolor="#fae8db"] ;
181 -> 182 ;
183 [label="X[16] <= 2.5\nmse = 0.047\nsamples = 3\nvalue = 1.125", fillcolor="#fae6d7"] ;
182 -> 183 ;
184 [label="mse = 0.0\nsamples = 2\nvalue = 1.0", fillcolor="#fae9dc"] ;
183 -> 184 ;
185 [label="mse = 0.0\nsamples = 1\nvalue = 1.5", fillcolor="#f8ddca"] ;
183 -> 185 ;
186 [label="mse = 0.0\nsamples = 16\nvalue = 1.0", fillcolor="#fae9dc"] ;
182 -> 186 ;
187 [label="X[1] <= 0.5\nmse = 0.222\nsamples = 2\nvalue = 0.667", fillcolor="#fcf0e7"] ;
181 -> 187 ;
188 [label="mse = 0.0\nsamples = 1\nvalue = 1.0", fillcolor="#fae9dc"] ;
187 -> 188 ;
189 [label="mse = 0.0\nsamples = 1\nvalue = 0.0", fillcolor="#ffffff"] ;
187 -> 189 ;
190 [label="X[9] <= -14641.0\nmse = 0.153\nsamples = 11\nvalue = 0.35", fillcolor="#fdf7f3"] ;
162 -> 190 ;
191 [label="X[16] <= 2.5\nmse = 0.128\nsamples = 5\nvalue = 0.591", fillcolor="#fcf2ea"] ;
190 -> 191 ;
192 [label="mse = 0.0\nsamples = 3\nvalue = 0.5", fillcolor="#fdf4ed"] ;
191 -> 192 ;
193 [label="mse = 0.222\nsamples = 2\nvalue = 0.667", fillcolor="#fcf0e7"] ;
191 -> 193 ;
194 [label="X[9] <= -11185.5\nmse = 0.025\nsamples = 6\nvalue = 0.056", fillcolor="#fffefd"] ;
190 -> 194 ;
195 [label="mse = 0.0\nsamples = 5\nvalue = 0.0", fillcolor="#ffffff"] ;
194 -> 195 ;
196 [label="mse = 0.0\nsamples = 1\nvalue = 0.5", fillcolor="#fdf4ed"] ;
194 -> 196 ;
197 [label="X[4] <= 234000.0\nmse = 0.19\nsamples = 328\nvalue = 0.624", fillcolor="#fcf1e9"] ;
131 -> 197 ;
198 [label="X[10] <= -395.0\nmse = 0.192\nsamples = 298\nvalue = 0.594", fillcolor="#fcf2ea"] ;
197 -> 198 ;
199 [label="X[10] <= -1041.5\nmse = 0.204\nsamples = 140\nvalue = 0.532", fillcolor="#fdf3ec"] ;
198 -> 199 ;
200 [label="X[4] <= 110250.0\nmse = 0.193\nsamples = 58\nvalue = 0.679", fillcolor="#fcf0e7"] ;
199 -> 200 ;
201 [label="X[16] <= 2.5\nmse = 0.194\nsamples = 17\nvalue = 0.438", fillcolor="#fdf5f0"] ;
200 -> 201 ;
202 [label="X[15] <= 10.0\nmse = 0.04\nsamples = 8\nvalue = 0.1", fillcolor="#fffdfb"] ;
201 -> 202 ;
203 [label="mse = 0.0\nsamples = 6\nvalue = 0.0", fillcolor="#ffffff"] ;
202 -> 203 ;
204 [label="X[9] <= -14856.5\nmse = 0.062\nsamples = 2\nvalue = 0.25", fillcolor="#fef9f6"] ;
202 -> 204 ;
205 [label="mse = 0.0\nsamples = 1\nvalue = 0.5", fillcolor="#fdf4ed"] ;
204 -> 205 ;
206 [label="mse = 0.0\nsamples = 1\nvalue = 0.0", fillcolor="#ffffff"] ;
204 -> 206 ;
207 [label="X[17] <= 0.5\nmse = 0.165\nsamples = 9\nvalue = 0.679", fillcolor="#fcf0e7"] ;
201 -> 207 ;
208 [label="mse = 0.0\nsamples = 4\nvalue = 1.0", fillcolor="#fae9dc"] ;
207 -> 208 ;
209 [label="X[12] <= 0.5\nmse = 0.122\nsamples = 5\nvalue = 0.357", fillcolor="#fdf7f2"] ;
207 -> 209 ;
210 [label="X[10] <= -1402.0\nmse = 0.06\nsamples = 3\nvalue = 0.2", fillcolor="#fefbf8"] ;
209 -> 210 ;
211 [label="mse = 0.0\nsamples = 1\nvalue = 0.5", fillcolor="#fdf4ed"] ;
210 -> 211 ;
212 [label="mse = 0.0\nsamples = 2\nvalue = 0.0", fillcolor="#ffffff"] ;
210 -> 212 ;
213 [label="X[7] <= 1.5\nmse = 0.062\nsamples = 2\nvalue = 0.75", fillcolor="#fceee5"] ;
209 -> 213 ;
214 [label="mse = 0.0\nsamples = 1\nvalue = 1.0", fillcolor="#fae9dc"] ;
213 -> 214 ;
215 [label="mse = 0.0\nsamples = 1\nvalue = 0.5", fillcolor="#fdf4ed"] ;
213 -> 215 ;
216 [label="X[4] <= 132750.0\nmse = 0.165\nsamples = 41\nvalue = 0.765", fillcolor="#fbeee4"] ;
200 -> 216 ;
217 [label="X[10] <= -1289.5\nmse = 0.033\nsamples = 6\nvalue = 1.077", fillcolor="#fae7d9"] ;
216 -> 217 ;
218 [label="mse = 0.0\nsamples = 4\nvalue = 1.0", fillcolor="#fae9dc"] ;
217 -> 218 ;
219 [label="X[17] <= 0.5\nmse = 0.056\nsamples = 2\nvalue = 1.333", fillcolor="#f9e1d0"] ;
217 -> 219 ;
220 [label="mse = 0.0\nsamples = 1\nvalue = 1.0", fillcolor="#fae9dc"] ;
219 -> 220 ;
221 [label="mse = 0.0\nsamples = 1\nvalue = 1.5", fillcolor="#f8ddca"] ;
219 -> 221 ;
222 [label="X[9] <= -15990.5\nmse = 0.168\nsamples = 35\nvalue = 0.691", fillcolor="#fcefe7"] ;
216 -> 222 ;
223 [label="X[15] <= 2.5\nmse = 0.103\nsamples = 12\nvalue = 0.833", fillcolor="#fbece2"] ;
222 -> 223 ;
224 [label="mse = 0.0\nsamples = 1\nvalue = 0.0", fillcolor="#ffffff"] ;
223 -> 224 ;
225 [label="X[2] <= 0.5\nmse = 0.072\nsamples = 11\nvalue = 0.875", fillcolor="#fbebe0"] ;
223 -> 225 ;
226 [label="X[7] <= 3.5\nmse = 0.25\nsamples = 2\nvalue = 0.5", fillcolor="#fdf4ed"] ;
225 -> 226 ;
227 [label="mse = 0.0\nsamples = 1\nvalue = 0.0", fillcolor="#ffffff"] ;
226 -> 227 ;
228 [label="mse = 0.0\nsamples = 1\nvalue = 1.0", fillcolor="#fae9dc"] ;
226 -> 228 ;
229 [label="X[17] <= 0.5\nmse = 0.035\nsamples = 9\nvalue = 0.917", fillcolor="#fbeadf"] ;
225 -> 229 ;
230 [label="mse = 0.0\nsamples = 3\nvalue = 1.0", fillcolor="#fae9dc"] ;
229 -> 230 ;
231 [label="X[9] <= -18242.0\nmse = 0.059\nsamples = 6\nvalue = 0.812", fillcolor="#fbede2"] ;
229 -> 231 ;
232 [label="mse = 0.0\nsamples = 3\nvalue = 1.0", fillcolor="#fae9dc"] ;
231 -> 232 ;
233 [label="X[4] <= 146250.0\nmse = 0.047\nsamples = 3\nvalue = 0.625", fillcolor="#fcf1e9"] ;
231 -> 233 ;
234 [label="mse = 0.0\nsamples = 1\nvalue = 1.0", fillcolor="#fae9dc"] ;
233 -> 234 ;
235 [label="mse = 0.0\nsamples = 2\nvalue = 0.5", fillcolor="#fdf4ed"] ;
233 -> 235 ;
236 [label="X[9] <= -15448.0\nmse = 0.188\nsamples = 23\nvalue = 0.603", fillcolor="#fcf1ea"] ;
222 -> 236 ;
237 [label="mse = 0.0\nsamples = 2\nvalue = 0.0", fillcolor="#ffffff"] ;
236 -> 237 ;
238 [label="X[13] <= 0.5\nmse = 0.158\nsamples = 21\nvalue = 0.683", fillcolor="#fcf0e7"] ;
236 -> 238 ;
239 [label="X[4] <= 191949.75\nmse = 0.136\nsamples = 18\nvalue = 0.741", fillcolor="#fceee5"] ;
238 -> 239 ;
240 [label="X[15] <= 13.5\nmse = 0.079\nsamples = 13\nvalue = 0.833", fillcolor="#fbece2"] ;
239 -> 240 ;
241 [label="X[12] <= 0.5\nmse = 0.029\nsamples = 8\nvalue = 0.933", fillcolor="#fbeade"] ;
240 -> 241 ;
242 [label="mse = 0.0\nsamples = 6\nvalue = 1.0", fillcolor="#fae9dc"] ;
241 -> 242 ;
243 [label="mse = 0.056\nsamples = 2\nvalue = 0.833", fillcolor="#fbece2"] ;
241 -> 243 ;
244 [label="X[16] <= 1.5\nmse = 0.118\nsamples = 5\nvalue = 0.583", fillcolor="#fcf2ea"] ;
240 -> 244 ;
245 [label="mse = 0.0\nsamples = 1\nvalue = 0.0", fillcolor="#ffffff"] ;
244 -> 245 ;
246 [label="X[17] <= 0.5\nmse = 0.06\nsamples = 4\nvalue = 0.7", fillcolor="#fcefe6"] ;
244 -> 246 ;
247 [label="mse = 0.0\nsamples = 2\nvalue = 1.0", fillcolor="#fae9dc"] ;
246 -> 247 ;
248 [label="mse = 0.0\nsamples = 2\nvalue = 0.5", fillcolor="#fdf4ed"] ;
246 -> 248 ;
249 [label="X[4] <= 213750.0\nmse = 0.201\nsamples = 5\nvalue = 0.417", fillcolor="#fdf6f0"] ;
239 -> 249 ;
250 [label="mse = 0.0\nsamples = 2\nvalue = 0.0", fillcolor="#ffffff"] ;
249 -> 250 ;
251 [label="X[2] <= 0.5\nmse = 0.056\nsamples = 3\nvalue = 0.833", fillcolor="#fbece2"] ;
249 -> 251 ;
252 [label="mse = 0.0\nsamples = 1\nvalue = 0.5", fillcolor="#fdf4ed"] ;
251 -> 252 ;
253 [label="mse = 0.0\nsamples = 2\nvalue = 1.0", fillcolor="#fae9dc"] ;
251 -> 253 ;
254 [label="X[6] <= 2.5\nmse = 0.056\nsamples = 3\nvalue = 0.167", fillcolor="#fefbf9"] ;
238 -> 254 ;
255 [label="mse = 0.0\nsamples = 2\nvalue = 0.0", fillcolor="#ffffff"] ;
254 -> 255 ;
256 [label="mse = 0.0\nsamples = 1\nvalue = 0.5", fillcolor="#fdf4ed"] ;
254 -> 256 ;
257 [label="X[17] <= 0.5\nmse = 0.184\nsamples = 82\nvalue = 0.424", fillcolor="#fdf5f0"] ;
199 -> 257 ;
258 [label="X[10] <= -706.0\nmse = 0.196\nsamples = 29\nvalue = 0.267", fillcolor="#fef9f6"] ;
257 -> 258 ;
259 [label="X[10] <= -771.5\nmse = 0.243\nsamples = 17\nvalue = 0.417", fillcolor="#fdf6f0"] ;
258 -> 259 ;
260 [label="X[9] <= -18295.5\nmse = 0.173\nsamples = 13\nvalue = 0.222", fillcolor="#fefaf7"] ;
259 -> 260 ;
261 [label="mse = 0.0\nsamples = 1\nvalue = 1.0", fillcolor="#fae9dc"] ;
260 -> 261 ;
262 [label="X[15] <= 14.0\nmse = 0.145\nsamples = 12\nvalue = 0.176", fillcolor="#fefbf9"] ;
260 -> 262 ;
263 [label="mse = 0.0\nsamples = 6\nvalue = 0.0", fillcolor="#ffffff"] ;
262 -> 263 ;
264 [label="X[4] <= 146250.0\nmse = 0.234\nsamples = 6\nvalue = 0.375", fillcolor="#fdf7f2"] ;
262 -> 264 ;
265 [label="X[5] <= 2.0\nmse = 0.139\nsamples = 4\nvalue = 0.167", fillcolor="#fefbf9"] ;
264 -> 265 ;
266 [label="mse = 0.0\nsamples = 1\nvalue = 1.0", fillcolor="#fae9dc"] ;
265 -> 266 ;
267 [label="mse = 0.0\nsamples = 3\nvalue = 0.0", fillcolor="#ffffff"] ;
265 -> 267 ;
268 [label="mse = 0.0\nsamples = 2\nvalue = 1.0", fillcolor="#fae9dc"] ;
264 -> 268 ;
269 [label="mse = 0.0\nsamples = 4\nvalue = 1.0", fillcolor="#fae9dc"] ;
259 -> 269 ;
270 [label="X[9] <= -17546.5\nmse = 0.086\nsamples = 12\nvalue = 0.095", fillcolor="#fffdfc"] ;
258 -> 270 ;
271 [label="X[4] <= 168750.0\nmse = 0.222\nsamples = 3\nvalue = 0.333", fillcolor="#fdf8f3"] ;
270 -> 271 ;
272 [label="mse = 0.0\nsamples = 1\nvalue = 1.0", fillcolor="#fae9dc"] ;
271 -> 272 ;
273 [label="mse = 0.0\nsamples = 2\nvalue = 0.0", fillcolor="#ffffff"] ;
271 -> 273 ;
274 [label="mse = 0.0\nsamples = 9\nvalue = 0.0", fillcolor="#ffffff"] ;
270 -> 274 ;
275 [label="X[6] <= 3.5\nmse = 0.156\nsamples = 53\nvalue = 0.512", fillcolor="#fdf3ed"] ;
257 -> 275 ;
276 [label="X[9] <= -14127.5\nmse = 0.062\nsamples = 13\nvalue = 0.265", fillcolor="#fef9f6"] ;
275 -> 276 ;
277 [label="X[14] <= 0.5\nmse = 0.035\nsamples = 3\nvalue = 0.083", fillcolor="#fffdfc"] ;
276 -> 277 ;
278 [label="mse = 0.0\nsamples = 2\nvalue = 0.0", fillcolor="#ffffff"] ;
277 -> 278 ;
279 [label="mse = 0.0\nsamples = 1\nvalue = 0.5", fillcolor="#fdf4ed"] ;
277 -> 279 ;
280 [label="X[9] <= -9883.0\nmse = 0.05\nsamples = 10\nvalue = 0.364", fillcolor="#fdf7f2"] ;
276 -> 280 ;
281 [label="mse = 0.0\nsamples = 7\nvalue = 0.5", fillcolor="#fdf4ed"] ;
280 -> 281 ;
282 [label="mse = 0.0\nsamples = 3\nvalue = 0.0", fillcolor="#ffffff"] ;
280 -> 282 ;
283 [label="X[15] <= 7.5\nmse = 0.16\nsamples = 40\nvalue = 0.579", fillcolor="#fcf2eb"] ;
275 -> 283 ;
284 [label="X[4] <= 105750.0\nmse = 0.066\nsamples = 8\nvalue = 0.955", fillcolor="#fbeadd"] ;
283 -> 284 ;
285 [label="mse = 0.0\nsamples = 1\nvalue = 1.5", fillcolor="#f8ddca"] ;
284 -> 285 ;
286 [label="X[8] <= 1.5\nmse = 0.04\nsamples = 7\nvalue = 0.9", fillcolor="#fbebdf"] ;
284 -> 286 ;
287 [label="X[7] <= 0.5\nmse = 0.025\nsamples = 6\nvalue = 0.944", fillcolor="#fbeade"] ;
286 -> 287 ;
288 [label="mse = 0.0\nsamples = 1\nvalue = 0.5", fillcolor="#fdf4ed"] ;
287 -> 288 ;
289 [label="mse = 0.0\nsamples = 5\nvalue = 1.0", fillcolor="#fae9dc"] ;
287 -> 289 ;
290 [label="mse = 0.0\nsamples = 1\nvalue = 0.5", fillcolor="#fdf4ed"] ;
286 -> 290 ;
291 [label="X[10] <= -1002.5\nmse = 0.144\nsamples = 32\nvalue = 0.5", fillcolor="#fdf4ed"] ;
283 -> 291 ;
292 [label="mse = 0.0\nsamples = 3\nvalue = 0.0", fillcolor="#ffffff"] ;
291 -> 292 ;
293 [label="X[7] <= 0.5\nmse = 0.137\nsamples = 29\nvalue = 0.531", fillcolor="#fdf3ec"] ;
291 -> 293 ;
294 [label="X[2] <= 0.5\nmse = 0.047\nsamples = 3\nvalue = 0.125", fillcolor="#fefcfb"] ;
293 -> 294 ;
295 [label="mse = 0.0\nsamples = 1\nvalue = 0.5", fillcolor="#fdf4ed"] ;
294 -> 295 ;
296 [label="mse = 0.0\nsamples = 2\nvalue = 0.0", fillcolor="#ffffff"] ;
294 -> 296 ;
297 [label="X[4] <= 153000.0\nmse = 0.129\nsamples = 26\nvalue = 0.567", fillcolor="#fcf2eb"] ;
293 -> 297 ;
298 [label="X[9] <= -11154.5\nmse = 0.118\nsamples = 15\nvalue = 0.68", fillcolor="#fcf0e7"] ;
297 -> 298 ;
299 [label="X[10] <= -536.5\nmse = 0.04\nsamples = 7\nvalue = 0.9", fillcolor="#fbebdf"] ;
298 -> 299 ;
300 [label="mse = 0.0\nsamples = 4\nvalue = 1.0", fillcolor="#fae9dc"] ;
299 -> 300 ;
301 [label="X[10] <= -459.5\nmse = 0.056\nsamples = 3\nvalue = 0.667", fillcolor="#fcf0e7"] ;
299 -> 301 ;
302 [label="mse = 0.0\nsamples = 2\nvalue = 0.5", fillcolor="#fdf4ed"] ;
301 -> 302 ;
303 [label="mse = 0.0\nsamples = 1\nvalue = 1.0", fillcolor="#fae9dc"] ;
301 -> 303 ;
304 [label="X[5] <= 3.0\nmse = 0.116\nsamples = 8\nvalue = 0.533", fillcolor="#fdf3ec"] ;
298 -> 304 ;
305 [label="mse = 0.0\nsamples = 2\nvalue = 1.0", fillcolor="#fae9dc"] ;
304 -> 305 ;
306 [label="X[14] <= 0.5\nmse = 0.05\nsamples = 6\nvalue = 0.364", fillcolor="#fdf7f2"] ;
304 -> 306 ;
307 [label="X[0] <= 0.5\nmse = 0.025\nsamples = 5\nvalue = 0.444", fillcolor="#fdf5ef"] ;
306 -> 307 ;
308 [label="mse = 0.0\nsamples = 3\nvalue = 0.5", fillcolor="#fdf4ed"] ;
307 -> 308 ;
309 [label="X[10] <= -624.5\nmse = 0.056\nsamples = 2\nvalue = 0.333", fillcolor="#fdf8f3"] ;
307 -> 309 ;
310 [label="mse = 0.0\nsamples = 1\nvalue = 0.0", fillcolor="#ffffff"] ;
309 -> 310 ;
311 [label="mse = 0.0\nsamples = 1\nvalue = 0.5", fillcolor="#fdf4ed"] ;
309 -> 311 ;
312 [label="mse = 0.0\nsamples = 1\nvalue = 0.0", fillcolor="#ffffff"] ;
306 -> 312 ;
313 [label="X[15] <= 13.5\nmse = 0.107\nsamples = 11\nvalue = 0.425", fillcolor="#fdf5f0"] ;
297 -> 313 ;
314 [label="X[7] <= 3.5\nmse = 0.077\nsamples = 8\nvalue = 0.531", fillcolor="#fdf3ec"] ;
313 -> 314 ;
315 [label="X[9] <= -11644.5\nmse = 0.052\nsamples = 7\nvalue = 0.464", fillcolor="#fdf5ef"] ;
314 -> 315 ;
316 [label="X[9] <= -14827.0\nmse = 0.022\nsamples = 5\nvalue = 0.55", fillcolor="#fcf3ec"] ;
315 -> 316 ;
317 [label="mse = 0.0\nsamples = 4\nvalue = 0.5", fillcolor="#fdf4ed"] ;
316 -> 317 ;
318 [label="mse = 0.0\nsamples = 1\nvalue = 1.0", fillcolor="#fae9dc"] ;
316 -> 318 ;
319 [label="X[10] <= -751.5\nmse = 0.062\nsamples = 2\nvalue = 0.25", fillcolor="#fef9f6"] ;
315 -> 319 ;
320 [label="mse = 0.0\nsamples = 1\nvalue = 0.5", fillcolor="#fdf4ed"] ;
319 -> 320 ;
321 [label="mse = 0.0\nsamples = 1\nvalue = 0.0", fillcolor="#ffffff"] ;
319 -> 321 ;
322 [label="mse = 0.0\nsamples = 1\nvalue = 1.0", fillcolor="#fae9dc"] ;
314 -> 322 ;
323 [label="mse = 0.0\nsamples = 3\nvalue = 0.0", fillcolor="#ffffff"] ;
313 -> 323 ;
324 [label="X[10] <= -259.5\nmse = 0.175\nsamples = 158\nvalue = 0.649", fillcolor="#fcf0e8"] ;
198 -> 324 ;
325 [label="X[7] <= 3.5\nmse = 0.085\nsamples = 23\nvalue = 0.86", fillcolor="#fbece1"] ;
324 -> 325 ;
326 [label="X[17] <= 0.5\nmse = 0.069\nsamples = 22\nvalue = 0.881", fillcolor="#fbebe0"] ;
325 -> 326 ;
327 [label="X[4] <= 112500.0\nmse = 0.062\nsamples = 13\nvalue = 0.933", fillcolor="#fbeade"] ;
326 -> 327 ;
328 [label="X[9] <= -12961.0\nmse = 0.188\nsamples = 4\nvalue = 0.75", fillcolor="#fceee5"] ;
327 -> 328 ;
329 [label="mse = 0.204\nsamples = 3\nvalue = 0.714", fillcolor="#fcefe6"] ;
328 -> 329 ;
330 [label="mse = 0.0\nsamples = 1\nvalue = 1.0", fillcolor="#fae9dc"] ;
328 -> 330 ;
331 [label="mse = 0.0\nsamples = 9\nvalue = 1.0", fillcolor="#fae9dc"] ;
327 -> 331 ;
332 [label="X[12] <= 0.5\nmse = 0.062\nsamples = 9\nvalue = 0.75", fillcolor="#fceee5"] ;
326 -> 332 ;
333 [label="X[7] <= 0.5\nmse = 0.056\nsamples = 7\nvalue = 0.833", fillcolor="#fbece2"] ;
332 -> 333 ;
334 [label="mse = 0.0\nsamples = 2\nvalue = 0.5", fillcolor="#fdf4ed"] ;
333 -> 334 ;
335 [label="X[8] <= 0.5\nmse = 0.031\nsamples = 5\nvalue = 0.929", fillcolor="#fbeade"] ;
333 -> 335 ;
336 [label="mse = 0.0\nsamples = 1\nvalue = 0.5", fillcolor="#fdf4ed"] ;
335 -> 336 ;
337 [label="mse = 0.0\nsamples = 4\nvalue = 1.0", fillcolor="#fae9dc"] ;
335 -> 337 ;
338 [label="mse = 0.0\nsamples = 2\nvalue = 0.5", fillcolor="#fdf4ed"] ;
332 -> 338 ;
339 [label="mse = 0.0\nsamples = 1\nvalue = 0.0", fillcolor="#ffffff"] ;
325 -> 339 ;
340 [label="X[4] <= 123750.0\nmse = 0.182\nsamples = 135\nvalue = 0.604", fillcolor="#fcf1ea"] ;
324 -> 340 ;
341 [label="X[7] <= 3.5\nmse = 0.16\nsamples = 59\nvalue = 0.741", fillcolor="#fceee5"] ;
340 -> 341 ;
342 [label="X[5] <= 0.5\nmse = 0.112\nsamples = 53\nvalue = 0.818", fillcolor="#fbede2"] ;
341 -> 342 ;
343 [label="mse = 0.0\nsamples = 1\nvalue = 0.0", fillcolor="#ffffff"] ;
342 -> 343 ;
344 [label="X[9] <= -21628.5\nmse = 0.096\nsamples = 52\nvalue = 0.84", fillcolor="#fbece1"] ;
342 -> 344 ;
345 [label="X[9] <= -22026.0\nmse = 0.141\nsamples = 32\nvalue = 0.724", fillcolor="#fcefe5"] ;
344 -> 345 ;
346 [label="X[0] <= 0.5\nmse = 0.118\nsamples = 30\nvalue = 0.764", fillcolor="#fbeee4"] ;
345 -> 346 ;
347 [label="X[9] <= -24599.0\nmse = 0.071\nsamples = 22\nvalue = 0.852", fillcolor="#fbece1"] ;
346 -> 347 ;
348 [label="mse = 0.0\nsamples = 1\nvalue = 0.0", fillcolor="#ffffff"] ;
347 -> 348 ;
349 [label="X[2] <= 0.5\nmse = 0.044\nsamples = 21\nvalue = 0.885", fillcolor="#fbebe0"] ;
347 -> 349 ;
350 [label="X[9] <= -23818.5\nmse = 0.062\nsamples = 6\nvalue = 0.75", fillcolor="#fceee5"] ;
349 -> 350 ;
351 [label="mse = 0.0\nsamples = 1\nvalue = 0.5", fillcolor="#fdf4ed"] ;
350 -> 351 ;
352 [label="X[4] <= 74250.0\nmse = 0.04\nsamples = 5\nvalue = 0.9", fillcolor="#fbebdf"] ;
350 -> 352 ;
353 [label="mse = 0.0\nsamples = 1\nvalue = 0.5", fillcolor="#fdf4ed"] ;
352 -> 353 ;
354 [label="mse = 0.0\nsamples = 4\nvalue = 1.0", fillcolor="#fae9dc"] ;
352 -> 354 ;
355 [label="X[7] <= 0.5\nmse = 0.025\nsamples = 15\nvalue = 0.944", fillcolor="#fbeade"] ;
349 -> 355 ;
356 [label="X[4] <= 110250.0\nmse = 0.056\nsamples = 2\nvalue = 0.667", fillcolor="#fcf0e7"] ;
355 -> 356 ;
357 [label="mse = 0.0\nsamples = 1\nvalue = 1.0", fillcolor="#fae9dc"] ;
356 -> 357 ;
358 [label="mse = 0.0\nsamples = 1\nvalue = 0.5", fillcolor="#fdf4ed"] ;
356 -> 358 ;
359 [label="mse = 0.0\nsamples = 13\nvalue = 1.0", fillcolor="#fae9dc"] ;
355 -> 359 ;
360 [label="X[4] <= 81000.0\nmse = 0.167\nsamples = 8\nvalue = 0.5", fillcolor="#fdf4ed"] ;
346 -> 360 ;
361 [label="X[9] <= -23282.0\nmse = 0.122\nsamples = 6\nvalue = 0.357", fillcolor="#fdf7f2"] ;
360 -> 361 ;
362 [label="X[17] <= 0.5\nmse = 0.125\nsamples = 3\nvalue = 0.5", fillcolor="#fdf4ed"] ;
361 -> 362 ;
363 [label="mse = 0.25\nsamples = 2\nvalue = 0.5", fillcolor="#fdf4ed"] ;
362 -> 363 ;
364 [label="mse = 0.0\nsamples = 1\nvalue = 0.5", fillcolor="#fdf4ed"] ;
362 -> 364 ;
365 [label="X[9] <= -22346.5\nmse = 0.056\nsamples = 3\nvalue = 0.167", fillcolor="#fefbf9"] ;
361 -> 365 ;
366 [label="mse = 0.0\nsamples = 1\nvalue = 0.0", fillcolor="#ffffff"] ;
365 -> 366 ;
367 [label="mse = 0.062\nsamples = 2\nvalue = 0.25", fillcolor="#fef9f6"] ;
365 -> 367 ;
368 [label="mse = 0.0\nsamples = 2\nvalue = 1.0", fillcolor="#fae9dc"] ;
360 -> 368 ;
369 [label="mse = 0.0\nsamples = 2\nvalue = 0.0", fillcolor="#ffffff"] ;
345 -> 369 ;
370 [label="X[4] <= 103500.0\nmse = 0.014\nsamples = 20\nvalue = 0.971", fillcolor="#fbe9dd"] ;
344 -> 370 ;
371 [label="mse = 0.0\nsamples = 14\nvalue = 1.0", fillcolor="#fae9dc"] ;
370 -> 371 ;
372 [label="X[0] <= 0.5\nmse = 0.04\nsamples = 6\nvalue = 0.9", fillcolor="#fbebdf"] ;
370 -> 372 ;
373 [label="X[9] <= -15827.0\nmse = 0.056\nsamples = 2\nvalue = 0.667", fillcolor="#fcf0e7"] ;
372 -> 373 ;
374 [label="mse = 0.0\nsamples = 1\nvalue = 0.5", fillcolor="#fdf4ed"] ;
373 -> 374 ;
375 [label="mse = 0.0\nsamples = 1\nvalue = 1.0", fillcolor="#fae9dc"] ;
373 -> 375 ;
376 [label="mse = 0.0\nsamples = 4\nvalue = 1.0", fillcolor="#fae9dc"] ;
372 -> 376 ;
377 [label="X[9] <= -22122.0\nmse = 0.213\nsamples = 6\nvalue = 0.308", fillcolor="#fef8f4"] ;
341 -> 377 ;
378 [label="X[17] <= 0.5\nmse = 0.09\nsamples = 5\nvalue = 0.1", fillcolor="#fffdfb"] ;
377 -> 378 ;
379 [label="mse = 0.0\nsamples = 3\nvalue = 0.0", fillcolor="#ffffff"] ;
378 -> 379 ;
380 [label="X[9] <= -22688.0\nmse = 0.222\nsamples = 2\nvalue = 0.333", fillcolor="#fdf8f3"] ;
378 -> 380 ;
381 [label="mse = 0.0\nsamples = 1\nvalue = 1.0", fillcolor="#fae9dc"] ;
380 -> 381 ;
382 [label="mse = 0.0\nsamples = 1\nvalue = 0.0", fillcolor="#ffffff"] ;
380 -> 382 ;
383 [label="mse = 0.0\nsamples = 1\nvalue = 1.0", fillcolor="#fae9dc"] ;
377 -> 383 ;
384 [label="X[4] <= 198000.0\nmse = 0.174\nsamples = 76\nvalue = 0.5", fillcolor="#fdf4ed"] ;
340 -> 384 ;
385 [label="X[3] <= 2.0\nmse = 0.175\nsamples = 60\nvalue = 0.438", fillcolor="#fdf5f0"] ;
384 -> 385 ;
386 [label="X[10] <= -101.5\nmse = 0.17\nsamples = 58\nvalue = 0.418", fillcolor="#fdf6f0"] ;
385 -> 386 ;
387 [label="X[6] <= 1.5\nmse = 0.107\nsamples = 16\nvalue = 0.175", fillcolor="#fefbf9"] ;
386 -> 387 ;
388 [label="X[15] <= 2.5\nmse = 0.022\nsamples = 8\nvalue = 0.05", fillcolor="#fffefd"] ;
387 -> 388 ;
389 [label="mse = 0.0\nsamples = 1\nvalue = 0.5", fillcolor="#fdf4ed"] ;
388 -> 389 ;
390 [label="mse = 0.0\nsamples = 7\nvalue = 0.0", fillcolor="#ffffff"] ;
388 -> 390 ;
391 [label="X[7] <= 2.0\nmse = 0.16\nsamples = 8\nvalue = 0.3", fillcolor="#fef8f4"] ;
387 -> 391 ;
392 [label="X[17] <= 0.5\nmse = 0.117\nsamples = 7\nvalue = 0.222", fillcolor="#fefaf7"] ;
391 -> 392 ;
393 [label="mse = 0.0\nsamples = 1\nvalue = 1.0", fillcolor="#fae9dc"] ;
392 -> 393 ;
394 [label="X[10] <= -176.5\nmse = 0.047\nsamples = 6\nvalue = 0.125", fillcolor="#fefcfb"] ;
392 -> 394 ;
395 [label="mse = 0.0\nsamples = 1\nvalue = 0.5", fillcolor="#fdf4ed"] ;
394 -> 395 ;
396 [label="X[1] <= 0.5\nmse = 0.031\nsamples = 5\nvalue = 0.071", fillcolor="#fffdfc"] ;
394 -> 396 ;
397 [label="mse = 0.0\nsamples = 2\nvalue = 0.0", fillcolor="#ffffff"] ;
396 -> 397 ;
398 [label="X[4] <= 141750.0\nmse = 0.047\nsamples = 3\nvalue = 0.125", fillcolor="#fefcfb"] ;
396 -> 398 ;
399 [label="mse = 0.0\nsamples = 1\nvalue = 0.0", fillcolor="#ffffff"] ;
398 -> 399 ;
400 [label="mse = 0.056\nsamples = 2\nvalue = 0.167", fillcolor="#fefbf9"] ;
398 -> 400 ;
401 [label="mse = 0.0\nsamples = 1\nvalue = 1.0", fillcolor="#fae9dc"] ;
391 -> 401 ;
402 [label="X[9] <= -21204.0\nmse = 0.165\nsamples = 42\nvalue = 0.492", fillcolor="#fdf4ee"] ;
386 -> 402 ;
403 [label="X[9] <= -23037.0\nmse = 0.182\nsamples = 19\nvalue = 0.352", fillcolor="#fdf7f3"] ;
402 -> 403 ;
404 [label="X[4] <= 139500.0\nmse = 0.133\nsamples = 4\nvalue = 0.714", fillcolor="#fcefe6"] ;
403 -> 404 ;
405 [label="mse = 0.0\nsamples = 2\nvalue = 1.0", fillcolor="#fae9dc"] ;
404 -> 405 ;
406 [label="X[17] <= 0.5\nmse = 0.056\nsamples = 2\nvalue = 0.333", fillcolor="#fdf8f3"] ;
404 -> 406 ;
407 [label="mse = 0.0\nsamples = 1\nvalue = 0.0", fillcolor="#ffffff"] ;
406 -> 407 ;
408 [label="mse = 0.0\nsamples = 1\nvalue = 0.5", fillcolor="#fdf4ed"] ;
406 -> 408 ;
409 [label="X[9] <= -22373.5\nmse = 0.137\nsamples = 15\nvalue = 0.225", fillcolor="#fefaf7"] ;
403 -> 409 ;
410 [label="X[8] <= 1.5\nmse = 0.04\nsamples = 6\nvalue = 0.1", fillcolor="#fffdfb"] ;
409 -> 410 ;
411 [label="X[4] <= 168750.0\nmse = 0.025\nsamples = 5\nvalue = 0.056", fillcolor="#fffefd"] ;
410 -> 411 ;
412 [label="mse = 0.0\nsamples = 3\nvalue = 0.0", fillcolor="#ffffff"] ;
411 -> 412 ;
413 [label="X[16] <= 1.5\nmse = 0.062\nsamples = 2\nvalue = 0.25", fillcolor="#fef9f6"] ;
411 -> 413 ;
414 [label="mse = 0.0\nsamples = 1\nvalue = 0.0", fillcolor="#ffffff"] ;
413 -> 414 ;
415 [label="mse = 0.0\nsamples = 1\nvalue = 0.5", fillcolor="#fdf4ed"] ;
413 -> 415 ;
416 [label="mse = 0.0\nsamples = 1\nvalue = 0.5", fillcolor="#fdf4ed"] ;
410 -> 416 ;
417 [label="X[9] <= -22226.5\nmse = 0.202\nsamples = 9\nvalue = 0.35", fillcolor="#fdf7f3"] ;
409 -> 417 ;
418 [label="mse = 0.0\nsamples = 2\nvalue = 1.0", fillcolor="#fae9dc"] ;
417 -> 418 ;
419 [label="X[6] <= 2.5\nmse = 0.121\nsamples = 7\nvalue = 0.188", fillcolor="#fefbf8"] ;
417 -> 419 ;
420 [label="mse = 0.062\nsamples = 2\nvalue = 0.75", fillcolor="#fceee5"] ;
419 -> 420 ;
421 [label="mse = 0.0\nsamples = 5\nvalue = 0.0", fillcolor="#ffffff"] ;
419 -> 421 ;
422 [label="X[14] <= 0.5\nmse = 0.13\nsamples = 23\nvalue = 0.592", fillcolor="#fcf2ea"] ;
402 -> 422 ;
423 [label="X[4] <= 153000.0\nmse = 0.079\nsamples = 16\nvalue = 0.714", fillcolor="#fcefe6"] ;
422 -> 423 ;
424 [label="X[9] <= -20475.5\nmse = 0.072\nsamples = 12\nvalue = 0.636", fillcolor="#fcf1e9"] ;
423 -> 424 ;
425 [label="X[9] <= -20771.5\nmse = 0.062\nsamples = 8\nvalue = 0.567", fillcolor="#fcf2eb"] ;
424 -> 425 ;
426 [label="X[9] <= -21098.0\nmse = 0.06\nsamples = 3\nvalue = 0.8", fillcolor="#fbede3"] ;
425 -> 426 ;
427 [label="mse = 0.0\nsamples = 1\nvalue = 0.5", fillcolor="#fdf4ed"] ;
426 -> 427 ;
428 [label="mse = 0.0\nsamples = 2\nvalue = 1.0", fillcolor="#fae9dc"] ;
426 -> 428 ;
429 [label="X[13] <= 0.5\nmse = 0.022\nsamples = 5\nvalue = 0.45", fillcolor="#fdf5ef"] ;
425 -> 429 ;
430 [label="mse = 0.0\nsamples = 4\nvalue = 0.5", fillcolor="#fdf4ed"] ;
429 -> 430 ;
431 [label="mse = 0.0\nsamples = 1\nvalue = 0.0", fillcolor="#ffffff"] ;
429 -> 431 ;
432 [label="X[1] <= 0.5\nmse = 0.061\nsamples = 4\nvalue = 0.786", fillcolor="#fbede3"] ;
424 -> 432 ;
433 [label="mse = 0.0\nsamples = 3\nvalue = 1.0", fillcolor="#fae9dc"] ;
432 -> 433 ;
434 [label="mse = 0.0\nsamples = 1\nvalue = 0.5", fillcolor="#fdf4ed"] ;
432 -> 434 ;
435 [label="mse = 0.0\nsamples = 4\nvalue = 1.0", fillcolor="#fae9dc"] ;
423 -> 435 ;
436 [label="X[13] <= 0.5\nmse = 0.112\nsamples = 7\nvalue = 0.25", fillcolor="#fef9f6"] ;
422 -> 436 ;
437 [label="mse = 0.0\nsamples = 3\nvalue = 0.0", fillcolor="#ffffff"] ;
436 -> 437 ;
438 [label="X[17] <= 0.5\nmse = 0.122\nsamples = 4\nvalue = 0.357", fillcolor="#fdf7f2"] ;
436 -> 438 ;
439 [label="mse = 0.0\nsamples = 1\nvalue = 0.0", fillcolor="#ffffff"] ;
438 -> 439 ;
440 [label="mse = 0.118\nsamples = 3\nvalue = 0.417", fillcolor="#fdf6f0"] ;
438 -> 440 ;
441 [label="mse = 0.0\nsamples = 2\nvalue = 1.0", fillcolor="#fae9dc"] ;
385 -> 441 ;
442 [label="X[9] <= -11567.5\nmse = 0.116\nsamples = 16\nvalue = 0.704", fillcolor="#fcefe6"] ;
384 -> 442 ;
443 [label="X[6] <= 3.0\nmse = 0.108\nsamples = 11\nvalue = 0.556", fillcolor="#fcf3eb"] ;
442 -> 443 ;
444 [label="X[17] <= 0.5\nmse = 0.062\nsamples = 4\nvalue = 0.25", fillcolor="#fef9f6"] ;
443 -> 444 ;
445 [label="mse = 0.0\nsamples = 1\nvalue = 0.0", fillcolor="#ffffff"] ;
444 -> 445 ;
446 [label="X[6] <= 1.5\nmse = 0.047\nsamples = 3\nvalue = 0.375", fillcolor="#fdf7f2"] ;
444 -> 446 ;
447 [label="mse = 0.0\nsamples = 2\nvalue = 0.5", fillcolor="#fdf4ed"] ;
446 -> 447 ;
448 [label="mse = 0.0\nsamples = 1\nvalue = 0.0", fillcolor="#ffffff"] ;
446 -> 448 ;
449 [label="X[0] <= 0.5\nmse = 0.061\nsamples = 7\nvalue = 0.708", fillcolor="#fcefe6"] ;
443 -> 449 ;
450 [label="mse = 0.0\nsamples = 3\nvalue = 1.0", fillcolor="#fae9dc"] ;
449 -> 450 ;
451 [label="X[13] <= 0.5\nmse = 0.027\nsamples = 4\nvalue = 0.562", fillcolor="#fcf2eb"] ;
449 -> 451 ;
452 [label="mse = 0.0\nsamples = 3\nvalue = 0.5", fillcolor="#fdf4ed"] ;
451 -> 452 ;
453 [label="mse = 0.0\nsamples = 1\nvalue = 1.0", fillcolor="#fae9dc"] ;
451 -> 453 ;
454 [label="mse = 0.0\nsamples = 5\nvalue = 1.0", fillcolor="#fae9dc"] ;
442 -> 454 ;
455 [label="X[9] <= -16605.0\nmse = 0.092\nsamples = 30\nvalue = 0.885", fillcolor="#fbebe0"] ;
197 -> 455 ;
456 [label="X[9] <= -16978.5\nmse = 0.154\nsamples = 16\nvalue = 0.778", fillcolor="#fbeee4"] ;
455 -> 456 ;
457 [label="X[2] <= 0.5\nmse = 0.112\nsamples = 13\nvalue = 0.886", fillcolor="#fbebe0"] ;
456 -> 457 ;
458 [label="mse = 0.0\nsamples = 1\nvalue = 0.5", fillcolor="#fdf4ed"] ;
457 -> 458 ;
459 [label="X[7] <= 3.5\nmse = 0.102\nsamples = 12\nvalue = 0.947", fillcolor="#fbeade"] ;
457 -> 459 ;
460 [label="X[9] <= -17446.5\nmse = 0.088\nsamples = 11\nvalue = 1.0", fillcolor="#fae9dc"] ;
459 -> 460 ;
461 [label="X[17] <= 0.5\nmse = 0.077\nsamples = 10\nvalue = 0.969", fillcolor="#fbe9dd"] ;
460 -> 461 ;
462 [label="X[7] <= 0.5\nmse = 0.109\nsamples = 5\nvalue = 0.875", fillcolor="#fbebe0"] ;
461 -> 462 ;
463 [label="mse = 0.0\nsamples = 1\nvalue = 0.0", fillcolor="#ffffff"] ;
462 -> 463 ;
464 [label="mse = 0.0\nsamples = 4\nvalue = 1.0", fillcolor="#fae9dc"] ;
462 -> 464 ;
465 [label="X[7] <= 0.5\nmse = 0.027\nsamples = 5\nvalue = 1.062", fillcolor="#fae7d9"] ;
461 -> 465 ;
466 [label="mse = 0.0\nsamples = 1\nvalue = 1.5", fillcolor="#f8ddca"] ;
465 -> 466 ;
467 [label="mse = 0.0\nsamples = 4\nvalue = 1.0", fillcolor="#fae9dc"] ;
465 -> 467 ;
468 [label="mse = 0.0\nsamples = 1\nvalue = 1.5", fillcolor="#f8ddca"] ;
460 -> 468 ;
469 [label="mse = 0.0\nsamples = 1\nvalue = 0.5", fillcolor="#fdf4ed"] ;
459 -> 469 ;
470 [label="mse = 0.06\nsamples = 3\nvalue = 0.3", fillcolor="#fef8f4"] ;
456 -> 470 ;
471 [label="mse = 0.0\nsamples = 14\nvalue = 1.0", fillcolor="#fae9dc"] ;
455 -> 471 ;
472 [label="X[9] <= -22786.0\nmse = 0.156\nsamples = 4483\nvalue = 0.687", fillcolor="#fcf0e7"] ;
2 -> 472 ;
473 [label="X[9] <= -22792.0\nmse = 0.166\nsamples = 274\nvalue = 0.607", fillcolor="#fcf1ea"] ;
472 -> 473 ;
474 [label="X[8] <= 1.5\nmse = 0.165\nsamples = 270\nvalue = 0.617", fillcolor="#fcf1e9"] ;
473 -> 474 ;
475 [label="X[9] <= -24306.5\nmse = 0.165\nsamples = 262\nvalue = 0.606", fillcolor="#fcf1ea"] ;
474 -> 475 ;
476 [label="X[4] <= 132750.0\nmse = 0.158\nsamples = 17\nvalue = 0.413", fillcolor="#fdf6f0"] ;
475 -> 476 ;
477 [label="X[17] <= 9.5\nmse = 0.111\nsamples = 12\nvalue = 0.286", fillcolor="#fef9f5"] ;
476 -> 477 ;
478 [label="X[9] <= -24319.0\nmse = 0.115\nsamples = 10\nvalue = 0.372", fillcolor="#fdf7f2"] ;
477 -> 478 ;
479 [label="X[0] <= 0.5\nmse = 0.08\nsamples = 9\nvalue = 0.278", fillcolor="#fef9f5"] ;
478 -> 479 ;
480 [label="X[17] <= 5.5\nmse = 0.048\nsamples = 8\nvalue = 0.23", fillcolor="#fefaf7"] ;
479 -> 480 ;
481 [label="X[17] <= 4.5\nmse = 0.006\nsamples = 3\nvalue = 0.056", fillcolor="#fffefd"] ;
480 -> 481 ;
482 [label="mse = 0.0\nsamples = 2\nvalue = 0.0", fillcolor="#ffffff"] ;
481 -> 482 ;
483 [label="mse = 0.0\nsamples = 1\nvalue = 0.167", fillcolor="#fefbf9"] ;
481 -> 483 ;
484 [label="X[17] <= 8.0\nmse = 0.043\nsamples = 5\nvalue = 0.346", fillcolor="#fdf7f3"] ;
480 -> 484 ;
485 [label="X[4] <= 119250.0\nmse = 0.033\nsamples = 4\nvalue = 0.416", fillcolor="#fdf6f0"] ;
484 -> 485 ;
486 [label="X[13] <= 0.5\nmse = 0.005\nsamples = 3\nvalue = 0.485", fillcolor="#fdf4ee"] ;
485 -> 486 ;
487 [label="X[17] <= 6.5\nmse = 0.001\nsamples = 2\nvalue = 0.457", fillcolor="#fdf5ef"] ;
486 -> 487 ;
488 [label="mse = 0.0\nsamples = 1\nvalue = 0.429", fillcolor="#fdf5f0"] ;
487 -> 488 ;
489 [label="mse = 0.0\nsamples = 1\nvalue = 0.5", fillcolor="#fdf4ed"] ;
487 -> 489 ;
490 [label="mse = 0.0\nsamples = 1\nvalue = 0.625", fillcolor="#fcf1e9"] ;
486 -> 490 ;
491 [label="mse = 0.0\nsamples = 1\nvalue = 0.0", fillcolor="#ffffff"] ;
485 -> 491 ;
492 [label="mse = -0.0\nsamples = 1\nvalue = 0.1", fillcolor="#fffdfb"] ;
484 -> 492 ;
493 [label="mse = -0.0\nsamples = 1\nvalue = 1.0", fillcolor="#fae9dc"] ;
479 -> 493 ;
494 [label="mse = -0.0\nsamples = 1\nvalue = 0.875", fillcolor="#fbebe0"] ;
478 -> 494 ;
495 [label="X[2] <= 0.5\nmse = 0.001\nsamples = 2\nvalue = 0.015", fillcolor="#fffffe"] ;
477 -> 495 ;
496 [label="mse = 0.0\nsamples = 1\nvalue = 0.091", fillcolor="#fffdfc"] ;
495 -> 496 ;
497 [label="mse = 0.0\nsamples = 1\nvalue = 0.0", fillcolor="#ffffff"] ;
495 -> 497 ;
498 [label="X[1] <= 0.5\nmse = 0.009\nsamples = 5\nvalue = 0.942", fillcolor="#fbeade"] ;
476 -> 498 ;
499 [label="X[4] <= 146250.0\nmse = 0.011\nsamples = 3\nvalue = 0.883", fillcolor="#fbebe0"] ;
498 -> 499 ;
500 [label="mse = 0.0\nsamples = 1\nvalue = 0.75", fillcolor="#fceee5"] ;
499 -> 500 ;
501 [label="X[4] <= 168750.0\nmse = 0.003\nsamples = 2\nvalue = 0.95", fillcolor="#fbeadd"] ;
499 -> 501 ;
502 [label="mse = 0.0\nsamples = 1\nvalue = 1.0", fillcolor="#fae9dc"] ;
501 -> 502 ;
503 [label="mse = 0.0\nsamples = 1\nvalue = 0.9", fillcolor="#fbebdf"] ;
501 -> 503 ;
504 [label="X[6] <= 2.5\nmse = 0.0\nsamples = 2\nvalue = 1.0", fillcolor="#fae9dc"] ;
498 -> 504 ;
505 [label="mse = 0.0\nsamples = 1\nvalue = 1.0", fillcolor="#fae9dc"] ;
504 -> 505 ;
506 [label="mse = 0.0\nsamples = 1\nvalue = 1.0", fillcolor="#fae9dc"] ;
504 -> 506 ;
507 [label="X[9] <= -24218.5\nmse = 0.162\nsamples = 245\nvalue = 0.622", fillcolor="#fcf1e9"] ;
475 -> 507 ;
508 [label="X[17] <= 4.5\nmse = 0.07\nsamples = 11\nvalue = 0.964", fillcolor="#fbe9dd"] ;
507 -> 508 ;
509 [label="X[4] <= 128250.0\nmse = 0.119\nsamples = 6\nvalue = 0.771", fillcolor="#fbeee4"] ;
508 -> 509 ;
510 [label="X[4] <= 87750.0\nmse = 0.129\nsamples = 5\nvalue = 0.733", fillcolor="#fcefe5"] ;
509 -> 510 ;
511 [label="X[17] <= 3.5\nmse = 0.01\nsamples = 2\nvalue = 0.9", fillcolor="#fbebdf"] ;
510 -> 511 ;
512 [label="mse = 0.0\nsamples = 1\nvalue = 1.0", fillcolor="#fae9dc"] ;
511 -> 512 ;
513 [label="mse = 0.0\nsamples = 1\nvalue = 0.8", fillcolor="#fbede3"] ;
511 -> 513 ;
514 [label="X[7] <= 2.5\nmse = 0.167\nsamples = 3\nvalue = 0.65", fillcolor="#fcf0e8"] ;
510 -> 514 ;
515 [label="mse = 0.0\nsamples = 1\nvalue = 0.6", fillcolor="#fcf2ea"] ;
514 -> 515 ;
516 [label="mse = 0.222\nsamples = 2\nvalue = 0.667", fillcolor="#fcf0e7"] ;
514 -> 516 ;
517 [label="mse = 0.0\nsamples = 1\nvalue = 1.0", fillcolor="#fae9dc"] ;
509 -> 517 ;
518 [label="X[4] <= 162000.0\nmse = 0.006\nsamples = 5\nvalue = 1.077", fillcolor="#fae7d9"] ;
508 -> 518 ;
519 [label="mse = -0.0\nsamples = 3\nvalue = 1.0", fillcolor="#fae9dc"] ;
518 -> 519 ;
520 [label="X[16] <= 1.5\nmse = 0.001\nsamples = 2\nvalue = 1.154", fillcolor="#fae5d6"] ;
518 -> 520 ;
521 [label="mse = -0.0\nsamples = 1\nvalue = 1.167", fillcolor="#fae5d6"] ;
520 -> 521 ;
522 [label="mse = -0.0\nsamples = 1\nvalue = 1.091", fillcolor="#fae6d8"] ;
520 -> 522 ;
523 [label="X[9] <= -24170.0\nmse = 0.161\nsamples = 234\nvalue = 0.604", fillcolor="#fcf1ea"] ;
507 -> 523 ;
524 [label="X[17] <= 7.0\nmse = 0.053\nsamples = 6\nvalue = 0.202", fillcolor="#fefaf8"] ;
523 -> 524 ;
525 [label="X[4] <= 225000.0\nmse = 0.024\nsamples = 4\nvalue = 0.405", fillcolor="#fdf6f1"] ;
524 -> 525 ;
526 [label="X[15] <= 12.5\nmse = 0.007\nsamples = 2\nvalue = 0.583", fillcolor="#fcf2ea"] ;
525 -> 526 ;
527 [label="mse = 0.0\nsamples = 1\nvalue = 0.667", fillcolor="#fcf0e7"] ;
526 -> 527 ;
528 [label="mse = 0.0\nsamples = 1\nvalue = 0.5", fillcolor="#fdf4ed"] ;
526 -> 528 ;
529 [label="mse = -0.0\nsamples = 2\nvalue = 0.286", fillcolor="#fef9f5"] ;
525 -> 529 ;
530 [label="X[16] <= 1.5\nmse = 0.0\nsamples = 2\nvalue = 0.0", fillcolor="#ffffff"] ;
524 -> 530 ;
531 [label="mse = 0.0\nsamples = 1\nvalue = 0.0", fillcolor="#ffffff"] ;
530 -> 531 ;
532 [label="mse = 0.0\nsamples = 1\nvalue = 0.0", fillcolor="#ffffff"] ;
530 -> 532 ;
533 [label="X[4] <= 96750.0\nmse = 0.159\nsamples = 228\nvalue = 0.616", fillcolor="#fcf1e9"] ;
523 -> 533 ;
534 [label="X[9] <= -24035.5\nmse = 0.175\nsamples = 51\nvalue = 0.492", fillcolor="#fdf4ee"] ;
533 -> 534 ;
535 [label="mse = 0.0\nsamples = 5\nvalue = 1.0", fillcolor="#fae9dc"] ;
534 -> 535 ;
536 [label="X[17] <= 2.5\nmse = 0.165\nsamples = 46\nvalue = 0.444", fillcolor="#fdf5ef"] ;
534 -> 536 ;
537 [label="X[7] <= 2.5\nmse = 0.028\nsamples = 2\nvalue = 1.167", fillcolor="#fae5d6"] ;
536 -> 537 ;
538 [label="mse = 0.0\nsamples = 1\nvalue = 1.333", fillcolor="#f9e1d0"] ;
537 -> 538 ;
539 [label="mse = 0.0\nsamples = 1\nvalue = 1.0", fillcolor="#fae9dc"] ;
537 -> 539 ;
540 [label="X[9] <= -22976.5\nmse = 0.154\nsamples = 44\nvalue = 0.424", fillcolor="#fdf5f0"] ;
536 -> 540 ;
541 [label="X[9] <= -22982.0\nmse = 0.146\nsamples = 41\nvalue = 0.394", fillcolor="#fdf6f1"] ;
540 -> 541 ;
542 [label="X[4] <= 74250.0\nmse = 0.145\nsamples = 38\nvalue = 0.425", fillcolor="#fdf5f0"] ;
541 -> 542 ;
543 [label="X[7] <= 3.0\nmse = 0.144\nsamples = 18\nvalue = 0.546", fillcolor="#fcf3ec"] ;
542 -> 543 ;
544 [label="X[17] <= 6.5\nmse = 0.117\nsamples = 15\nvalue = 0.619", fillcolor="#fcf1e9"] ;
543 -> 544 ;
545 [label="X[4] <= 51750.0\nmse = 0.067\nsamples = 9\nvalue = 0.828", fillcolor="#fbece2"] ;
544 -> 545 ;
546 [label="mse = 0.0\nsamples = 1\nvalue = 0.333", fillcolor="#fdf8f3"] ;
545 -> 546 ;
547 [label="X[9] <= -23921.5\nmse = 0.048\nsamples = 8\nvalue = 0.873", fillcolor="#fbebe0"] ;
545 -> 547 ;
548 [label="mse = 0.056\nsamples = 2\nvalue = 0.583", fillcolor="#fcf2ea"] ;
547 -> 548 ;
549 [label="X[16] <= 1.5\nmse = 0.002\nsamples = 6\nvalue = 0.982", fillcolor="#fae9dc"] ;
547 -> 549 ;
550 [label="mse = 0.0\nsamples = 1\nvalue = 0.857", fillcolor="#fbece1"] ;
549 -> 550 ;
551 [label="mse = 0.0\nsamples = 5\nvalue = 1.0", fillcolor="#fae9dc"] ;
549 -> 551 ;
552 [label="X[17] <= 9.5\nmse = 0.085\nsamples = 6\nvalue = 0.427", fillcolor="#fdf5f0"] ;
544 -> 552 ;
553 [label="X[9] <= -23862.0\nmse = 0.056\nsamples = 3\nvalue = 0.167", fillcolor="#fefbf9"] ;
552 -> 553 ;
554 [label="mse = 0.0\nsamples = 1\nvalue = 0.5", fillcolor="#fdf4ed"] ;
553 -> 554 ;
555 [label="mse = 0.0\nsamples = 2\nvalue = 0.0", fillcolor="#ffffff"] ;
553 -> 555 ;
556 [label="X[0] <= 0.5\nmse = 0.003\nsamples = 3\nvalue = 0.649", fillcolor="#fcf0e8"] ;
552 -> 556 ;
557 [label="mse = 0.0\nsamples = 1\nvalue = 0.727", fillcolor="#fcefe5"] ;
556 -> 557 ;
558 [label="X[4] <= 46575.0\nmse = 0.001\nsamples = 2\nvalue = 0.618", fillcolor="#fcf1e9"] ;
556 -> 558 ;
559 [label="mse = 0.0\nsamples = 1\nvalue = 0.636", fillcolor="#fcf1e9"] ;
558 -> 559 ;
560 [label="mse = -0.0\nsamples = 1\nvalue = 0.545", fillcolor="#fcf3ec"] ;
558 -> 560 ;
561 [label="X[4] <= 58500.0\nmse = 0.142\nsamples = 3\nvalue = 0.241", fillcolor="#fefaf7"] ;
543 -> 561 ;
562 [label="mse = 0.0\nsamples = 1\nvalue = 0.0", fillcolor="#ffffff"] ;
561 -> 562 ;
563 [label="X[17] <= 5.5\nmse = 0.077\nsamples = 2\nvalue = 0.722", fillcolor="#fcefe6"] ;
561 -> 563 ;
564 [label="mse = 0.0\nsamples = 1\nvalue = 1.0", fillcolor="#fae9dc"] ;
563 -> 564 ;
565 [label="mse = 0.0\nsamples = 1\nvalue = 0.444", fillcolor="#fdf5ef"] ;
563 -> 565 ;
566 [label="X[17] <= 3.5\nmse = 0.117\nsamples = 20\nvalue = 0.308", fillcolor="#fef8f4"] ;
542 -> 566 ;
567 [label="mse = 0.0\nsamples = 2\nvalue = 0.0", fillcolor="#ffffff"] ;
566 -> 567 ;
568 [label="X[17] <= 6.0\nmse = 0.116\nsamples = 18\nvalue = 0.394", fillcolor="#fdf6f1"] ;
566 -> 568 ;
569 [label="X[9] <= -23124.5\nmse = 0.137\nsamples = 9\nvalue = 0.561", fillcolor="#fcf2eb"] ;
568 -> 569 ;
570 [label="X[9] <= -23655.5\nmse = 0.145\nsamples = 7\nvalue = 0.656", fillcolor="#fcf0e8"] ;
569 -> 570 ;
571 [label="X[16] <= 2.5\nmse = 0.2\nsamples = 4\nvalue = 0.5", fillcolor="#fdf4ed"] ;
570 -> 571 ;
572 [label="mse = 0.0\nsamples = 1\nvalue = 0.5", fillcolor="#fdf4ed"] ;
571 -> 572 ;
573 [label="mse = 0.25\nsamples = 3\nvalue = 0.5", fillcolor="#fdf4ed"] ;
571 -> 573 ;
574 [label="X[16] <= 1.5\nmse = 0.008\nsamples = 3\nvalue = 0.85", fillcolor="#fbece1"] ;
570 -> 574 ;
575 [label="mse = 0.0\nsamples = 1\nvalue = 1.0", fillcolor="#fae9dc"] ;
574 -> 575 ;
576 [label="mse = -0.0\nsamples = 2\nvalue = 0.8", fillcolor="#fbede3"] ;
574 -> 576 ;
577 [label="X[17] <= 4.5\nmse = 0.006\nsamples = 2\nvalue = 0.278", fillcolor="#fef9f5"] ;
569 -> 577 ;
578 [label="mse = 0.0\nsamples = 1\nvalue = 0.333", fillcolor="#fdf8f3"] ;
577 -> 578 ;
579 [label="mse = 0.0\nsamples = 1\nvalue = 0.167", fillcolor="#fefbf9"] ;
577 -> 579 ;
580 [label="X[9] <= -23569.5\nmse = 0.048\nsamples = 9\nvalue = 0.239", fillcolor="#fefaf7"] ;
568 -> 580 ;
581 [label="X[16] <= 1.5\nmse = 0.063\nsamples = 3\nvalue = 0.417", fillcolor="#fdf6f0"] ;
580 -> 581 ;
582 [label="X[6] <= 2.5\nmse = 0.006\nsamples = 2\nvalue = 0.556", fillcolor="#fcf3eb"] ;
581 -> 582 ;
583 [label="mse = 0.0\nsamples = 1\nvalue = 0.667", fillcolor="#fcf0e7"] ;
582 -> 583 ;
584 [label="mse = 0.0\nsamples = 1\nvalue = 0.5", fillcolor="#fdf4ed"] ;
582 -> 584 ;
585 [label="mse = 0.0\nsamples = 1\nvalue = 0.0", fillcolor="#ffffff"] ;
581 -> 585 ;
586 [label="X[9] <= -23188.5\nmse = 0.021\nsamples = 6\nvalue = 0.161", fillcolor="#fefbf9"] ;
580 -> 586 ;
587 [label="mse = 0.0\nsamples = 3\nvalue = 0.0", fillcolor="#ffffff"] ;
586 -> 587 ;
588 [label="X[4] <= 85500.0\nmse = 0.0\nsamples = 3\nvalue = 0.289", fillcolor="#fef9f5"] ;
586 -> 588 ;
589 [label="mse = 0.0\nsamples = 1\nvalue = 0.273", fillcolor="#fef9f5"] ;
588 -> 589 ;
590 [label="X[0] <= 0.5\nmse = 0.0\nsamples = 2\nvalue = 0.3", fillcolor="#fef8f4"] ;
588 -> 590 ;
591 [label="mse = 0.0\nsamples = 1\nvalue = 0.3", fillcolor="#fef8f4"] ;
590 -> 591 ;
592 [label="mse = 0.0\nsamples = 1\nvalue = 0.3", fillcolor="#fef8f4"] ;
590 -> 592 ;
593 [label="X[17] <= 3.5\nmse = 0.0\nsamples = 3\nvalue = 0.0", fillcolor="#ffffff"] ;
541 -> 593 ;
594 [label="mse = 0.0\nsamples = 2\nvalue = 0.0", fillcolor="#ffffff"] ;
593 -> 594 ;
595 [label="mse = 0.0\nsamples = 1\nvalue = 0.0", fillcolor="#ffffff"] ;
593 -> 595 ;
596 [label="X[4] <= 78750.0\nmse = 0.012\nsamples = 3\nvalue = 0.938", fillcolor="#fbeade"] ;
540 -> 596 ;
597 [label="mse = 0.0\nsamples = 2\nvalue = 1.0", fillcolor="#fae9dc"] ;
596 -> 597 ;
598 [label="mse = 0.0\nsamples = 1\nvalue = 0.75", fillcolor="#fceee5"] ;
596 -> 598 ;
599 [label="X[4] <= 133200.0\nmse = 0.148\nsamples = 177\nvalue = 0.653", fillcolor="#fcf0e8"] ;
533 -> 599 ;
600 [label="X[4] <= 113895.0\nmse = 0.097\nsamples = 55\nvalue = 0.781", fillcolor="#fbede3"] ;
599 -> 600 ;
601 [label="X[9] <= -23247.0\nmse = 0.12\nsamples = 37\nvalue = 0.692", fillcolor="#fcefe7"] ;
600 -> 601 ;
602 [label="X[9] <= -23594.0\nmse = 0.129\nsamples = 28\nvalue = 0.628", fillcolor="#fcf1e9"] ;
601 -> 602 ;
603 [label="X[4] <= 99450.0\nmse = 0.077\nsamples = 9\nvalue = 0.86", fillcolor="#fbece1"] ;
602 -> 603 ;
604 [label="X[17] <= 7.0\nmse = 0.222\nsamples = 2\nvalue = 0.667", fillcolor="#fcf0e7"] ;
603 -> 604 ;
605 [label="mse = 0.0\nsamples = 1\nvalue = 0.0", fillcolor="#ffffff"] ;
604 -> 605 ;
606 [label="mse = 0.0\nsamples = 1\nvalue = 1.0", fillcolor="#fae9dc"] ;
604 -> 606 ;
607 [label="X[17] <= 4.0\nmse = 0.012\nsamples = 7\nvalue = 0.925", fillcolor="#fbeade"] ;
603 -> 607 ;
608 [label="mse = 0.0\nsamples = 2\nvalue = 1.0", fillcolor="#fae9dc"] ;
607 -> 608 ;
609 [label="X[4] <= 108000.0\nmse = 0.014\nsamples = 5\nvalue = 0.865", fillcolor="#fbece0"] ;
607 -> 609 ;
610 [label="X[17] <= 5.5\nmse = 0.004\nsamples = 2\nvalue = 0.774", fillcolor="#fbeee4"] ;
609 -> 610 ;
611 [label="mse = 0.0\nsamples = 1\nvalue = 0.833", fillcolor="#fbece2"] ;
610 -> 611 ;
612 [label="mse = 0.0\nsamples = 1\nvalue = 0.714", fillcolor="#fcefe6"] ;
610 -> 612 ;
613 [label="X[9] <= -23932.5\nmse = 0.011\nsamples = 3\nvalue = 0.926", fillcolor="#fbeade"] ;
609 -> 613 ;
614 [label="mse = 0.0\nsamples = 1\nvalue = 0.778", fillcolor="#fbeee4"] ;
613 -> 614 ;
615 [label="mse = 0.0\nsamples = 2\nvalue = 1.0", fillcolor="#fae9dc"] ;
613 -> 615 ;
616 [label="X[17] <= 7.5\nmse = 0.12\nsamples = 19\nvalue = 0.535", fillcolor="#fdf3ec"] ;
602 -> 616 ;
617 [label="X[9] <= -23589.0\nmse = 0.117\nsamples = 11\nvalue = 0.653", fillcolor="#fcf0e8"] ;
616 -> 617 ;
618 [label="mse = 0.0\nsamples = 1\nvalue = 0.0", fillcolor="#ffffff"] ;
617 -> 618 ;
619 [label="X[7] <= 0.5\nmse = 0.072\nsamples = 10\nvalue = 0.734", fillcolor="#fcefe5"] ;
617 -> 619 ;
620 [label="mse = 0.0\nsamples = 1\nvalue = 0.333", fillcolor="#fdf8f3"] ;
619 -> 620 ;
621 [label="X[17] <= 5.5\nmse = 0.024\nsamples = 9\nvalue = 0.868", fillcolor="#fbece0"] ;
619 -> 621 ;
622 [label="X[4] <= 105750.0\nmse = 0.031\nsamples = 6\nvalue = 0.814", fillcolor="#fbede2"] ;
621 -> 622 ;
623 [label="mse = 0.0\nsamples = 2\nvalue = 1.0", fillcolor="#fae9dc"] ;
622 -> 623 ;
624 [label="X[9] <= -23389.5\nmse = 0.024\nsamples = 4\nvalue = 0.74", fillcolor="#fceee5"] ;
622 -> 624 ;
625 [label="X[16] <= 1.5\nmse = 0.001\nsamples = 2\nvalue = 0.622", fillcolor="#fcf1e9"] ;
624 -> 625 ;
626 [label="mse = 0.0\nsamples = 1\nvalue = 0.667", fillcolor="#fcf0e7"] ;
625 -> 626 ;
627 [label="mse = -0.0\nsamples = 1\nvalue = 0.6", fillcolor="#fcf2ea"] ;
625 -> 627 ;
628 [label="X[5] <= 2.5\nmse = 0.007\nsamples = 2\nvalue = 0.917", fillcolor="#fbeadf"] ;
624 -> 628 ;
629 [label="mse = 0.0\nsamples = 1\nvalue = 0.833", fillcolor="#fbece2"] ;
628 -> 629 ;
630 [label="mse = 0.0\nsamples = 1\nvalue = 1.0", fillcolor="#fae9dc"] ;
628 -> 630 ;
631 [label="X[1] <= 0.5\nmse = 0.005\nsamples = 3\nvalue = 0.943", fillcolor="#fbeade"] ;
621 -> 631 ;
632 [label="mse = 0.0\nsamples = 2\nvalue = 1.0", fillcolor="#fae9dc"] ;
631 -> 632 ;
633 [label="mse = -0.0\nsamples = 1\nvalue = 0.857", fillcolor="#fbece1"] ;
631 -> 633 ;
634 [label="X[9] <= -23346.0\nmse = 0.072\nsamples = 8\nvalue = 0.359", fillcolor="#fdf7f2"] ;
616 -> 634 ;
635 [label="X[17] <= 8.5\nmse = 0.03\nsamples = 6\nvalue = 0.236", fillcolor="#fefaf7"] ;
634 -> 635 ;
636 [label="mse = 0.0\nsamples = 2\nvalue = 0.111", fillcolor="#fefdfb"] ;
635 -> 636 ;
637 [label="X[9] <= -23400.0\nmse = 0.031\nsamples = 4\nvalue = 0.336", fillcolor="#fdf7f3"] ;
635 -> 637 ;
638 [label="X[17] <= 9.5\nmse = 0.001\nsamples = 2\nvalue = 0.477", fillcolor="#fdf4ee"] ;
637 -> 638 ;
639 [label="mse = 0.0\nsamples = 1\nvalue = 0.5", fillcolor="#fdf4ed"] ;
638 -> 639 ;
640 [label="mse = -0.0\nsamples = 1\nvalue = 0.455", fillcolor="#fdf5ef"] ;
638 -> 640 ;
641 [label="mse = 0.029\nsamples = 2\nvalue = 0.242", fillcolor="#fefaf6"] ;
637 -> 641 ;
642 [label="X[13] <= 0.5\nmse = 0.017\nsamples = 2\nvalue = 0.727", fillcolor="#fcefe5"] ;
634 -> 642 ;
643 [label="mse = 0.0\nsamples = 1\nvalue = 0.909", fillcolor="#fbebdf"] ;
642 -> 643 ;
644 [label="mse = 0.0\nsamples = 1\nvalue = 0.636", fillcolor="#fcf1e9"] ;
642 -> 644 ;
645 [label="X[7] <= 3.5\nmse = 0.025\nsamples = 9\nvalue = 0.917", fillcolor="#fbeadf"] ;
601 -> 645 ;
646 [label="X[4] <= 110250.0\nmse = 0.011\nsamples = 8\nvalue = 0.955", fillcolor="#fbeadd"] ;
645 -> 646 ;
647 [label="X[16] <= 1.5\nmse = 0.019\nsamples = 3\nvalue = 0.875", fillcolor="#fbebe0"] ;
646 -> 647 ;
648 [label="mse = 0.0\nsamples = 1\nvalue = 1.0", fillcolor="#fae9dc"] ;
647 -> 648 ;
649 [label="X[9] <= -22824.0\nmse = 0.007\nsamples = 2\nvalue = 0.75", fillcolor="#fceee5"] ;
647 -> 649 ;
650 [label="mse = 0.0\nsamples = 1\nvalue = 0.667", fillcolor="#fcf0e7"] ;
649 -> 650 ;
651 [label="mse = -0.0\nsamples = 1\nvalue = 0.833", fillcolor="#fbece2"] ;
649 -> 651 ;
652 [label="mse = 0.0\nsamples = 5\nvalue = 1.0", fillcolor="#fae9dc"] ;
646 -> 652 ;
653 [label="mse = 0.0\nsamples = 1\nvalue = 0.5", fillcolor="#fdf4ed"] ;
645 -> 653 ;
654 [label="X[14] <= 0.5\nmse = 0.014\nsamples = 18\nvalue = 0.941", fillcolor="#fbeade"] ;
600 -> 654 ;
655 [label="X[17] <= 6.5\nmse = 0.006\nsamples = 16\nvalue = 0.969", fillcolor="#fbe9dd"] ;
654 -> 655 ;
656 [label="X[2] <= 0.5\nmse = 0.002\nsamples = 10\nvalue = 0.99", fillcolor="#fae9dc"] ;
655 -> 656 ;
657 [label="X[17] <= 4.0\nmse = 0.004\nsamples = 4\nvalue = 0.972", fillcolor="#fae9dd"] ;
656 -> 657 ;
658 [label="mse = 0.0\nsamples = 2\nvalue = 1.0", fillcolor="#fae9dc"] ;
657 -> 658 ;
659 [label="X[1] <= 0.5\nmse = 0.007\nsamples = 2\nvalue = 0.917", fillcolor="#fbeadf"] ;
657 -> 659 ;
660 [label="mse = 0.0\nsamples = 1\nvalue = 0.833", fillcolor="#fbece2"] ;
659 -> 660 ;
661 [label="mse = 0.0\nsamples = 1\nvalue = 1.0", fillcolor="#fae9dc"] ;
659 -> 661 ;
662 [label="mse = 0.0\nsamples = 6\nvalue = 1.0", fillcolor="#fae9dc"] ;
656 -> 662 ;
663 [label="X[17] <= 7.5\nmse = 0.011\nsamples = 6\nvalue = 0.938", fillcolor="#fbeade"] ;
655 -> 663 ;
664 [label="mse = 0.0\nsamples = 1\nvalue = 0.75", fillcolor="#fceee5"] ;
663 -> 664 ;
665 [label="X[1] <= 0.5\nmse = 0.003\nsamples = 5\nvalue = 0.98", fillcolor="#fae9dc"] ;
663 -> 665 ;
666 [label="mse = 0.0\nsamples = 4\nvalue = 1.0", fillcolor="#fae9dc"] ;
665 -> 666 ;
667 [label="mse = -0.0\nsamples = 1\nvalue = 0.818", fillcolor="#fbede2"] ;
665 -> 667 ;
668 [label="X[2] <= 0.5\nmse = 0.019\nsamples = 2\nvalue = 0.696", fillcolor="#fcefe6"] ;
654 -> 668 ;
669 [label="mse = 0.0\nsamples = 1\nvalue = 0.889", fillcolor="#fbebe0"] ;
668 -> 669 ;
670 [label="mse = 0.0\nsamples = 1\nvalue = 0.6", fillcolor="#fcf2ea"] ;
668 -> 670 ;
671 [label="X[9] <= -23582.0\nmse = 0.16\nsamples = 122\nvalue = 0.594", fillcolor="#fcf2ea"] ;
599 -> 671 ;
672 [label="X[4] <= 182700.0\nmse = 0.129\nsamples = 31\nvalue = 0.431", fillcolor="#fdf5f0"] ;
671 -> 672 ;
673 [label="X[9] <= -23781.5\nmse = 0.142\nsamples = 21\nvalue = 0.508", fillcolor="#fdf4ed"] ;
672 -> 673 ;
674 [label="X[16] <= 1.5\nmse = 0.216\nsamples = 8\nvalue = 0.325", fillcolor="#fdf8f4"] ;
673 -> 674 ;
675 [label="X[9] <= -23934.0\nmse = 0.19\nsamples = 7\nvalue = 0.264", fillcolor="#fef9f6"] ;
674 -> 675 ;
676 [label="mse = 0.0\nsamples = 1\nvalue = 1.0", fillcolor="#fae9dc"] ;
675 -> 676 ;
677 [label="X[17] <= 7.0\nmse = 0.15\nsamples = 6\nvalue = 0.19", fillcolor="#fefbf8"] ;
675 -> 677 ;
678 [label="X[17] <= 5.0\nmse = 0.005\nsamples = 4\nvalue = 0.071", fillcolor="#fffdfc"] ;
677 -> 678 ;
679 [label="mse = 0.0\nsamples = 2\nvalue = 0.0", fillcolor="#ffffff"] ;
678 -> 679 ;
680 [label="mse = 0.0\nsamples = 2\nvalue = 0.143", fillcolor="#fefcfa"] ;
678 -> 680 ;
681 [label="X[17] <= 9.0\nmse = 0.444\nsamples = 2\nvalue = 0.667", fillcolor="#fcf0e7"] ;
677 -> 681 ;
682 [label="mse = 0.0\nsamples = 1\nvalue = 1.333", fillcolor="#f9e1d0"] ;
681 -> 682 ;
683 [label="mse = 0.0\nsamples = 1\nvalue = 0.0", fillcolor="#ffffff"] ;
681 -> 683 ;
684 [label="mse = -0.0\nsamples = 1\nvalue = 1.0", fillcolor="#fae9dc"] ;
674 -> 684 ;
685 [label="X[17] <= 9.5\nmse = 0.061\nsamples = 13\nvalue = 0.624", fillcolor="#fcf1e9"] ;
673 -> 685 ;
686 [label="X[9] <= -23771.0\nmse = 0.034\nsamples = 11\nvalue = 0.681", fillcolor="#fcf0e7"] ;
685 -> 686 ;
687 [label="mse = 0.0\nsamples = 1\nvalue = 1.0", fillcolor="#fae9dc"] ;
686 -> 687 ;
688 [label="X[7] <= 0.5\nmse = 0.024\nsamples = 10\nvalue = 0.639", fillcolor="#fcf1e8"] ;
686 -> 688 ;
689 [label="mse = 0.0\nsamples = 1\nvalue = 1.0", fillcolor="#fae9dc"] ;
688 -> 689 ;
690 [label="X[17] <= 4.5\nmse = 0.015\nsamples = 9\nvalue = 0.613", fillcolor="#fcf1e9"] ;
688 -> 690 ;
691 [label="X[9] <= -23595.0\nmse = 0.008\nsamples = 3\nvalue = 0.693", fillcolor="#fcefe7"] ;
690 -> 691 ;
692 [label="mse = 0.0\nsamples = 1\nvalue = 0.8", fillcolor="#fbede3"] ;
691 -> 692 ;
693 [label="X[17] <= 3.0\nmse = 0.001\nsamples = 2\nvalue = 0.622", fillcolor="#fcf1e9"] ;
691 -> 693 ;
694 [label="mse = 0.0\nsamples = 1\nvalue = 0.667", fillcolor="#fcf0e7"] ;
693 -> 694 ;
695 [label="mse = -0.0\nsamples = 1\nvalue = 0.6", fillcolor="#fcf2ea"] ;
693 -> 695 ;
696 [label="X[7] <= 3.5\nmse = 0.014\nsamples = 6\nvalue = 0.569", fillcolor="#fcf2eb"] ;
690 -> 696 ;
697 [label="X[0] <= 0.5\nmse = 0.016\nsamples = 3\nvalue = 0.676", fillcolor="#fcf0e7"] ;
696 -> 697 ;
698 [label="X[16] <= 1.5\nmse = 0.0\nsamples = 2\nvalue = 0.764", fillcolor="#fbeee4"] ;
697 -> 698 ;
699 [label="mse = 0.0\nsamples = 1\nvalue = 0.778", fillcolor="#fbeee4"] ;
698 -> 699 ;
700 [label="mse = 0.0\nsamples = 1\nvalue = 0.75", fillcolor="#fceee5"] ;
698 -> 700 ;
701 [label="mse = 0.0\nsamples = 1\nvalue = 0.5", fillcolor="#fdf4ed"] ;
697 -> 701 ;
702 [label="X[9] <= -23723.5\nmse = 0.004\nsamples = 3\nvalue = 0.515", fillcolor="#fdf3ed"] ;
696 -> 702 ;
703 [label="mse = 0.0\nsamples = 1\nvalue = 0.6", fillcolor="#fcf2ea"] ;
702 -> 703 ;
704 [label="X[13] <= 0.5\nmse = 0.001\nsamples = 2\nvalue = 0.472", fillcolor="#fdf4ee"] ;
702 -> 704 ;
705 [label="mse = 0.0\nsamples = 1\nvalue = 0.444", fillcolor="#fdf5ef"] ;
704 -> 705 ;
706 [label="mse = 0.0\nsamples = 1\nvalue = 0.5", fillcolor="#fdf4ed"] ;
704 -> 706 ;
707 [label="X[6] <= 2.5\nmse = 0.019\nsamples = 2\nvalue = 0.136", fillcolor="#fefcfa"] ;
685 -> 707 ;
708 [label="mse = 0.0\nsamples = 1\nvalue = 0.0", fillcolor="#ffffff"] ;
707 -> 708 ;
709 [label="mse = 0.0\nsamples = 1\nvalue = 0.273", fillcolor="#fef9f5"] ;
707 -> 709 ;
710 [label="X[9] <= -23819.5\nmse = 0.058\nsamples = 10\nvalue = 0.26", fillcolor="#fef9f6"] ;
672 -> 710 ;
711 [label="X[17] <= 8.5\nmse = 0.058\nsamples = 5\nvalue = 0.379", fillcolor="#fdf6f2"] ;
710 -> 711 ;
712 [label="X[17] <= 6.0\nmse = 0.1\nsamples = 3\nvalue = 0.472", fillcolor="#fdf4ee"] ;
711 -> 712 ;
713 [label="mse = 0.0\nsamples = 1\nvalue = 0.5", fillcolor="#fdf4ed"] ;
712 -> 713 ;
714 [label="mse = 0.198\nsamples = 2\nvalue = 0.444", fillcolor="#fdf5ef"] ;
712 -> 714 ;
715 [label="X[17] <= 9.5\nmse = 0.0\nsamples = 2\nvalue = 0.286", fillcolor="#fef9f5"] ;
711 -> 715 ;
716 [label="mse = 0.0\nsamples = 1\nvalue = 0.3", fillcolor="#fef8f4"] ;
715 -> 716 ;
717 [label="mse = -0.0\nsamples = 1\nvalue = 0.273", fillcolor="#fef9f5"] ;
715 -> 717 ;
718 [label="X[1] <= 0.5\nmse = 0.013\nsamples = 5\nvalue = 0.102", fillcolor="#fffdfb"] ;
710 -> 718 ;
719 [label="X[17] <= 5.0\nmse = 0.011\nsamples = 4\nvalue = 0.153", fillcolor="#fefcfa"] ;
718 -> 719 ;
720 [label="X[9] <= -23722.5\nmse = 0.01\nsamples = 2\nvalue = 0.1", fillcolor="#fffdfb"] ;
719 -> 720 ;
721 [label="mse = 0.0\nsamples = 1\nvalue = 0.2", fillcolor="#fefbf8"] ;
720 -> 721 ;
722 [label="mse = 0.0\nsamples = 1\nvalue = 0.0", fillcolor="#ffffff"] ;
720 -> 722 ;
723 [label="X[17] <= 6.5\nmse = 0.006\nsamples = 2\nvalue = 0.205", fillcolor="#fefaf8"] ;
719 -> 723 ;
724 [label="mse = 0.0\nsamples = 1\nvalue = 0.286", fillcolor="#fef9f5"] ;
723 -> 724 ;
725 [label="mse = 0.0\nsamples = 1\nvalue = 0.125", fillcolor="#fefcfb"] ;
723 -> 725 ;
726 [label="mse = 0.0\nsamples = 1\nvalue = 0.0", fillcolor="#ffffff"] ;
718 -> 726 ;
727 [label="X[17] <= 4.5\nmse = 0.159\nsamples = 91\nvalue = 0.648", fillcolor="#fcf0e8"] ;
671 -> 727 ;
728 [label="X[9] <= -23072.5\nmse = 0.179\nsamples = 23\nvalue = 0.467", fillcolor="#fdf5ef"] ;
727 -> 728 ;
729 [label="X[9] <= -23400.0\nmse = 0.169\nsamples = 14\nvalue = 0.323", fillcolor="#fef8f4"] ;
728 -> 729 ;
730 [label="X[10] <= 180046.5\nmse = 0.019\nsamples = 3\nvalue = 0.771", fillcolor="#fbeee4"] ;
729 -> 730 ;
731 [label="mse = 0.0\nsamples = 1\nvalue = 1.0", fillcolor="#fae9dc"] ;
730 -> 731 ;
732 [label="X[9] <= -23446.5\nmse = 0.002\nsamples = 2\nvalue = 0.694", fillcolor="#fcefe6"] ;
730 -> 732 ;
733 [label="mse = 0.0\nsamples = 1\nvalue = 0.75", fillcolor="#fceee5"] ;
732 -> 733 ;
734 [label="mse = 0.0\nsamples = 1\nvalue = 0.667", fillcolor="#fcf0e7"] ;
732 -> 734 ;
735 [label="X[6] <= 2.5\nmse = 0.152\nsamples = 11\nvalue = 0.238", fillcolor="#fefaf7"] ;
729 -> 735 ;
736 [label="X[1] <= 0.5\nmse = 0.208\nsamples = 4\nvalue = 0.5", fillcolor="#fdf4ed"] ;
735 -> 736 ;
737 [label="X[9] <= -23116.0\nmse = 0.199\nsamples = 3\nvalue = 0.562", fillcolor="#fcf2eb"] ;
736 -> 737 ;
738 [label="mse = 0.25\nsamples = 2\nvalue = 0.5", fillcolor="#fdf4ed"] ;
737 -> 738 ;
739 [label="mse = 0.0\nsamples = 1\nvalue = 0.75", fillcolor="#fceee5"] ;
737 -> 739 ;
740 [label="mse = 0.0\nsamples = 1\nvalue = 0.0", fillcolor="#ffffff"] ;
736 -> 740 ;
741 [label="X[9] <= -23365.5\nmse = 0.019\nsamples = 7\nvalue = 0.042", fillcolor="#fffefe"] ;
735 -> 741 ;
742 [label="X[17] <= 2.5\nmse = 0.056\nsamples = 2\nvalue = 0.167", fillcolor="#fefbf9"] ;
741 -> 742 ;
743 [label="mse = 0.0\nsamples = 1\nvalue = 0.5", fillcolor="#fdf4ed"] ;
742 -> 743 ;
744 [label="mse = 0.0\nsamples = 1\nvalue = 0.0", fillcolor="#ffffff"] ;
742 -> 744 ;
745 [label="mse = 0.0\nsamples = 5\nvalue = 0.0", fillcolor="#ffffff"] ;
741 -> 745 ;
746 [label="X[17] <= 2.5\nmse = 0.082\nsamples = 9\nvalue = 0.744", fillcolor="#fceee5"] ;
728 -> 746 ;
747 [label="X[9] <= -22876.5\nmse = 0.076\nsamples = 4\nvalue = 0.417", fillcolor="#fdf6f0"] ;
746 -> 747 ;
748 [label="X[4] <= 157500.0\nmse = 0.028\nsamples = 2\nvalue = 0.167", fillcolor="#fefbf9"] ;
747 -> 748 ;
749 [label="mse = 0.0\nsamples = 1\nvalue = 0.0", fillcolor="#ffffff"] ;
748 -> 749 ;
750 [label="mse = 0.0\nsamples = 1\nvalue = 0.333", fillcolor="#fdf8f3"] ;
748 -> 750 ;
751 [label="mse = 0.0\nsamples = 2\nvalue = 0.667", fillcolor="#fcf0e7"] ;
747 -> 751 ;
752 [label="X[9] <= -22934.0\nmse = 0.015\nsamples = 5\nvalue = 0.889", fillcolor="#fbebe0"] ;
746 -> 752 ;
753 [label="X[7] <= 3.5\nmse = 0.009\nsamples = 4\nvalue = 0.958", fillcolor="#fbe9dd"] ;
752 -> 753 ;
754 [label="mse = 0.0\nsamples = 3\nvalue = 1.0", fillcolor="#fae9dc"] ;
753 -> 754 ;
755 [label="mse = 0.0\nsamples = 1\nvalue = 0.75", fillcolor="#fceee5"] ;
753 -> 755 ;
756 [label="mse = 0.0\nsamples = 1\nvalue = 0.75", fillcolor="#fceee5"] ;
752 -> 756 ;
757 [label="X[4] <= 173250.0\nmse = 0.134\nsamples = 68\nvalue = 0.718", fillcolor="#fcefe6"] ;
727 -> 757 ;
758 [label="X[9] <= -23342.5\nmse = 0.138\nsamples = 29\nvalue = 0.618", fillcolor="#fcf1e9"] ;
757 -> 758 ;
759 [label="X[7] <= 2.0\nmse = 0.09\nsamples = 8\nvalue = 0.903", fillcolor="#fbebdf"] ;
758 -> 759 ;
760 [label="X[17] <= 7.5\nmse = 0.011\nsamples = 5\nvalue = 0.992", fillcolor="#fae9dc"] ;
759 -> 760 ;
761 [label="X[7] <= 0.5\nmse = 0.003\nsamples = 3\nvalue = 1.042", fillcolor="#fae8da"] ;
760 -> 761 ;
762 [label="mse = 0.0\nsamples = 1\nvalue = 1.125", fillcolor="#fae6d7"] ;
761 -> 762 ;
763 [label="mse = 0.0\nsamples = 2\nvalue = 1.0", fillcolor="#fae9dc"] ;
761 -> 763 ;
764 [label="X[4] <= 146250.0\nmse = 0.004\nsamples = 2\nvalue = 0.843", fillcolor="#fbece1"] ;
760 -> 764 ;
765 [label="mse = 0.0\nsamples = 1\nvalue = 0.909", fillcolor="#fbebdf"] ;
764 -> 765 ;
766 [label="mse = 0.0\nsamples = 1\nvalue = 0.778", fillcolor="#fbeee4"] ;
764 -> 766 ;
767 [label="X[9] <= -23458.0\nmse = 0.222\nsamples = 3\nvalue = 0.667", fillcolor="#fcf0e7"] ;
759 -> 767 ;
768 [label="mse = 0.0\nsamples = 1\nvalue = 0.0", fillcolor="#ffffff"] ;
767 -> 768 ;
769 [label="mse = 0.0\nsamples = 2\nvalue = 1.0", fillcolor="#fae9dc"] ;
767 -> 769 ;
770 [label="X[1] <= 0.5\nmse = 0.117\nsamples = 21\nvalue = 0.519", fillcolor="#fdf3ed"] ;
758 -> 770 ;
771 [label="X[9] <= -23149.0\nmse = 0.103\nsamples = 16\nvalue = 0.441", fillcolor="#fdf5ef"] ;
770 -> 771 ;
772 [label="X[9] <= -23329.5\nmse = 0.095\nsamples = 4\nvalue = 0.286", fillcolor="#fef9f5"] ;
771 -> 772 ;
773 [label="mse = 0.0\nsamples = 1\nvalue = 0.429", fillcolor="#fdf5f0"] ;
772 -> 773 ;
774 [label="X[9] <= -23239.0\nmse = 0.128\nsamples = 3\nvalue = 0.214", fillcolor="#fefaf7"] ;
772 -> 774 ;
775 [label="mse = 0.188\nsamples = 2\nvalue = 0.25", fillcolor="#fef9f6"] ;
774 -> 775 ;
776 [label="mse = 0.0\nsamples = 1\nvalue = 0.143", fillcolor="#fefcfa"] ;
774 -> 776 ;
777 [label="X[9] <= -23037.5\nmse = 0.087\nsamples = 12\nvalue = 0.524", fillcolor="#fdf3ed"] ;
771 -> 777 ;
778 [label="X[9] <= -23137.0\nmse = 0.027\nsamples = 6\nvalue = 0.805", fillcolor="#fbede3"] ;
777 -> 778 ;
779 [label="X[17] <= 5.5\nmse = 0.028\nsamples = 2\nvalue = 0.667", fillcolor="#fcf0e7"] ;
778 -> 779 ;
780 [label="mse = 0.0\nsamples = 1\nvalue = 0.833", fillcolor="#fbece2"] ;
779 -> 780 ;
781 [label="mse = -0.0\nsamples = 1\nvalue = 0.5", fillcolor="#fdf4ed"] ;
779 -> 781 ;
782 [label="X[9] <= -23083.0\nmse = 0.012\nsamples = 4\nvalue = 0.874", fillcolor="#fbebe0"] ;
778 -> 782 ;
783 [label="X[17] <= 8.0\nmse = 0.002\nsamples = 2\nvalue = 0.955", fillcolor="#fbeadd"] ;
782 -> 783 ;
784 [label="mse = 0.0\nsamples = 1\nvalue = 1.0", fillcolor="#fae9dc"] ;
783 -> 784 ;
785 [label="mse = -0.0\nsamples = 1\nvalue = 0.909", fillcolor="#fbebdf"] ;
783 -> 785 ;
786 [label="X[4] <= 146250.0\nmse = 0.009\nsamples = 2\nvalue = 0.794", fillcolor="#fbede3"] ;
782 -> 786 ;
787 [label="mse = 0.0\nsamples = 1\nvalue = 0.889", fillcolor="#fbebe0"] ;
786 -> 787 ;
788 [label="mse = 0.0\nsamples = 1\nvalue = 0.7", fillcolor="#fcefe6"] ;
786 -> 788 ;
789 [label="X[14] <= 0.5\nmse = 0.053\nsamples = 6\nvalue = 0.37", fillcolor="#fdf7f2"] ;
777 -> 789 ;
790 [label="X[9] <= -22980.5\nmse = 0.033\nsamples = 5\nvalue = 0.321", fillcolor="#fef8f4"] ;
789 -> 790 ;
791 [label="mse = 0.0\nsamples = 1\nvalue = 0.0", fillcolor="#ffffff"] ;
790 -> 791 ;
792 [label="X[13] <= 0.5\nmse = 0.024\nsamples = 4\nvalue = 0.357", fillcolor="#fdf7f2"] ;
790 -> 792 ;
793 [label="X[2] <= 0.5\nmse = 0.001\nsamples = 2\nvalue = 0.452", fillcolor="#fdf5ef"] ;
792 -> 793 ;
794 [label="mse = 0.0\nsamples = 1\nvalue = 0.5", fillcolor="#fdf4ed"] ;
793 -> 794 ;
795 [label="mse = -0.0\nsamples = 1\nvalue = 0.429", fillcolor="#fdf5f0"] ;
793 -> 795 ;
796 [label="X[7] <= 2.5\nmse = 0.014\nsamples = 2\nvalue = 0.167", fillcolor="#fefbf9"] ;
792 -> 796 ;
797 [label="mse = 0.0\nsamples = 1\nvalue = 0.0", fillcolor="#ffffff"] ;
796 -> 797 ;
798 [label="mse = 0.0\nsamples = 1\nvalue = 0.25", fillcolor="#fef9f6"] ;
796 -> 798 ;
799 [label="mse = -0.0\nsamples = 1\nvalue = 0.857", fillcolor="#fbece1"] ;
789 -> 799 ;
800 [label="X[4] <= 139500.0\nmse = 0.037\nsamples = 5\nvalue = 0.858", fillcolor="#fbece1"] ;
770 -> 800 ;
801 [label="X[9] <= -23267.5\nmse = 0.021\nsamples = 4\nvalue = 0.92", fillcolor="#fbeadf"] ;
800 -> 801 ;
802 [label="mse = 0.0\nsamples = 1\nvalue = 1.1", fillcolor="#fae6d8"] ;
801 -> 802 ;
803 [label="X[0] <= 0.5\nmse = 0.016\nsamples = 3\nvalue = 0.875", fillcolor="#fbebe0"] ;
801 -> 803 ;
804 [label="mse = 0.014\nsamples = 2\nvalue = 0.917", fillcolor="#fbeadf"] ;
803 -> 804 ;
805 [label="mse = 0.0\nsamples = 1\nvalue = 0.75", fillcolor="#fceee5"] ;
803 -> 805 ;
806 [label="mse = 0.0\nsamples = 1\nvalue = 0.545", fillcolor="#fcf3ec"] ;
800 -> 806 ;
807 [label="X[9] <= -23541.0\nmse = 0.117\nsamples = 39\nvalue = 0.797", fillcolor="#fbede3"] ;
757 -> 807 ;
808 [label="X[7] <= 1.5\nmse = 0.163\nsamples = 2\nvalue = 0.286", fillcolor="#fef9f5"] ;
807 -> 808 ;
809 [label="mse = 0.0\nsamples = 1\nvalue = 0.857", fillcolor="#fbece1"] ;
808 -> 809 ;
810 [label="mse = 0.0\nsamples = 1\nvalue = 0.0", fillcolor="#ffffff"] ;
808 -> 810 ;
811 [label="X[5] <= 1.5\nmse = 0.098\nsamples = 37\nvalue = 0.826", fillcolor="#fbece2"] ;
807 -> 811 ;
812 [label="X[17] <= 9.5\nmse = 0.063\nsamples = 29\nvalue = 0.89", fillcolor="#fbebe0"] ;
811 -> 812 ;
813 [label="X[9] <= -22903.0\nmse = 0.043\nsamples = 25\nvalue = 0.927", fillcolor="#fbeade"] ;
812 -> 813 ;
814 [label="X[7] <= 0.5\nmse = 0.027\nsamples = 24\nvalue = 0.949", fillcolor="#fbeade"] ;
813 -> 814 ;
815 [label="mse = 0.0\nsamples = 1\nvalue = 0.444", fillcolor="#fdf5ef"] ;
814 -> 815 ;
816 [label="X[6] <= 2.5\nmse = 0.02\nsamples = 23\nvalue = 0.964", fillcolor="#fbe9dd"] ;
814 -> 816 ;
817 [label="mse = 0.0\nsamples = 1\nvalue = 1.222", fillcolor="#f9e4d4"] ;
816 -> 817 ;
818 [label="X[2] <= 0.5\nmse = 0.015\nsamples = 22\nvalue = 0.939", fillcolor="#fbeade"] ;
816 -> 818 ;
819 [label="X[9] <= -23277.0\nmse = 0.052\nsamples = 3\nvalue = 0.829", fillcolor="#fbece2"] ;
818 -> 819 ;
820 [label="mse = 0.015\nsamples = 2\nvalue = 0.929", fillcolor="#fbeade"] ;
819 -> 820 ;
821 [label="mse = 0.0\nsamples = 1\nvalue = 0.429", fillcolor="#fdf5f0"] ;
819 -> 821 ;
822 [label="X[7] <= 2.0\nmse = 0.005\nsamples = 19\nvalue = 0.96", fillcolor="#fbe9dd"] ;
818 -> 822 ;
823 [label="X[4] <= 209250.0\nmse = 0.008\nsamples = 9\nvalue = 0.922", fillcolor="#fbeade"] ;
822 -> 823 ;
824 [label="X[13] <= 0.5\nmse = 0.008\nsamples = 6\nvalue = 0.946", fillcolor="#fbeade"] ;
823 -> 824 ;
825 [label="X[17] <= 5.5\nmse = 0.01\nsamples = 5\nvalue = 0.931", fillcolor="#fbeade"] ;
824 -> 825 ;
826 [label="mse = 0.0\nsamples = 1\nvalue = 1.0", fillcolor="#fae9dc"] ;
825 -> 826 ;
827 [label="X[17] <= 7.5\nmse = 0.01\nsamples = 4\nvalue = 0.919", fillcolor="#fbeadf"] ;
825 -> 827 ;
828 [label="mse = 0.018\nsamples = 2\nvalue = 0.905", fillcolor="#fbebdf"] ;
827 -> 828 ;
829 [label="X[1] <= 0.5\nmse = 0.002\nsamples = 2\nvalue = 0.933", fillcolor="#fbeade"] ;
827 -> 829 ;
830 [label="mse = 0.0\nsamples = 1\nvalue = 1.0", fillcolor="#fae9dc"] ;
829 -> 830 ;
831 [label="mse = 0.0\nsamples = 1\nvalue = 0.9", fillcolor="#fbebdf"] ;
829 -> 831 ;
832 [label="mse = 0.0\nsamples = 1\nvalue = 1.0", fillcolor="#fae9dc"] ;
824 -> 832 ;
833 [label="X[4] <= 276750.0\nmse = 0.0\nsamples = 3\nvalue = 0.849", fillcolor="#fbece1"] ;
823 -> 833 ;
834 [label="X[4] <= 227250.0\nmse = 0.0\nsamples = 2\nvalue = 0.857", fillcolor="#fbece1"] ;
833 -> 834 ;
835 [label="mse = 0.0\nsamples = 1\nvalue = 0.857", fillcolor="#fbece1"] ;
834 -> 835 ;
836 [label="mse = 0.0\nsamples = 1\nvalue = 0.857", fillcolor="#fbece1"] ;
834 -> 836 ;
837 [label="mse = 0.0\nsamples = 1\nvalue = 0.833", fillcolor="#fbece2"] ;
833 -> 837 ;
838 [label="X[9] <= -22957.5\nmse = 0.001\nsamples = 10\nvalue = 0.993", fillcolor="#fae9dc"] ;
822 -> 838 ;
839 [label="mse = 0.0\nsamples = 9\nvalue = 1.0", fillcolor="#fae9dc"] ;
838 -> 839 ;
840 [label="mse = -0.0\nsamples = 1\nvalue = 0.9", fillcolor="#fbebdf"] ;
838 -> 840 ;
841 [label="mse = -0.0\nsamples = 1\nvalue = 0.167", fillcolor="#fefbf9"] ;
813 -> 841 ;
842 [label="X[7] <= 1.5\nmse = 0.129\nsamples = 4\nvalue = 0.624", fillcolor="#fcf1e9"] ;
812 -> 842 ;
843 [label="X[4] <= 195750.0\nmse = 0.006\nsamples = 2\nvalue = 0.889", fillcolor="#fbebe0"] ;
842 -> 843 ;
844 [label="mse = 0.0\nsamples = 1\nvalue = 1.0", fillcolor="#fae9dc"] ;
843 -> 844 ;
845 [label="mse = 0.0\nsamples = 1\nvalue = 0.833", fillcolor="#fbece2"] ;
843 -> 845 ;
846 [label="X[6] <= 2.5\nmse = 0.052\nsamples = 2\nvalue = 0.227", fillcolor="#fefaf7"] ;
842 -> 846 ;
847 [label="mse = 0.0\nsamples = 1\nvalue = 0.0", fillcolor="#ffffff"] ;
846 -> 847 ;
848 [label="mse = 0.0\nsamples = 1\nvalue = 0.455", fillcolor="#fdf5ef"] ;
846 -> 848 ;
849 [label="X[7] <= 2.0\nmse = 0.155\nsamples = 8\nvalue = 0.587", fillcolor="#fcf2ea"] ;
811 -> 849 ;
850 [label="X[17] <= 8.5\nmse = 0.031\nsamples = 4\nvalue = 0.742", fillcolor="#fceee5"] ;
849 -> 850 ;
851 [label="X[15] <= 6.0\nmse = 0.003\nsamples = 3\nvalue = 0.818", fillcolor="#fbede2"] ;
850 -> 851 ;
852 [label="mse = 0.0\nsamples = 1\nvalue = 0.75", fillcolor="#fceee5"] ;
851 -> 852 ;
853 [label="X[17] <= 6.5\nmse = 0.0\nsamples = 2\nvalue = 0.863", fillcolor="#fbece1"] ;
851 -> 853 ;
854 [label="mse = 0.0\nsamples = 1\nvalue = 0.857", fillcolor="#fbece1"] ;
853 -> 854 ;
855 [label="mse = -0.0\nsamples = 1\nvalue = 0.875", fillcolor="#fbebe0"] ;
853 -> 855 ;
856 [label="mse = 0.0\nsamples = 1\nvalue = 0.364", fillcolor="#fdf7f2"] ;
850 -> 856 ;
857 [label="X[17] <= 5.5\nmse = 0.24\nsamples = 4\nvalue = 0.4", fillcolor="#fdf6f1"] ;
849 -> 857 ;
858 [label="mse = 0.0\nsamples = 1\nvalue = 0.0", fillcolor="#ffffff"] ;
857 -> 858 ;
859 [label="X[15] <= 13.5\nmse = 0.222\nsamples = 3\nvalue = 0.667", fillcolor="#fcf0e7"] ;
857 -> 859 ;
860 [label="X[17] <= 7.5\nmse = 0.25\nsamples = 2\nvalue = 0.5", fillcolor="#fdf4ed"] ;
859 -> 860 ;
861 [label="mse = 0.0\nsamples = 1\nvalue = 1.0", fillcolor="#fae9dc"] ;
860 -> 861 ;
862 [label="mse = 0.0\nsamples = 1\nvalue = 0.0", fillcolor="#ffffff"] ;
860 -> 862 ;
863 [label="mse = 0.0\nsamples = 1\nvalue = 1.0", fillcolor="#fae9dc"] ;
859 -> 863 ;
864 [label="X[9] <= -23618.0\nmse = 0.004\nsamples = 8\nvalue = 0.999", fillcolor="#fae9dc"] ;
474 -> 864 ;
865 [label="X[17] <= 8.5\nmse = 0.0\nsamples = 2\nvalue = 0.892", fillcolor="#fbebe0"] ;
864 -> 865 ;
866 [label="mse = 0.0\nsamples = 1\nvalue = 0.875", fillcolor="#fbebe0"] ;
865 -> 866 ;
867 [label="mse = -0.0\nsamples = 1\nvalue = 0.909", fillcolor="#fbebdf"] ;
865 -> 867 ;
868 [label="X[17] <= 8.0\nmse = 0.002\nsamples = 6\nvalue = 1.022", fillcolor="#fae8db"] ;
864 -> 868 ;
869 [label="X[1] <= 0.5\nmse = 0.0\nsamples = 5\nvalue = 1.0", fillcolor="#fae9dc"] ;
868 -> 869 ;
870 [label="mse = 0.0\nsamples = 3\nvalue = 1.0", fillcolor="#fae9dc"] ;
869 -> 870 ;
871 [label="mse = 0.0\nsamples = 2\nvalue = 1.0", fillcolor="#fae9dc"] ;
869 -> 871 ;
872 [label="mse = -0.0\nsamples = 1\nvalue = 1.1", fillcolor="#fae6d8"] ;
868 -> 872 ;
873 [label="X[17] <= 6.5\nmse = 0.036\nsamples = 4\nvalue = 0.153", fillcolor="#fefcfa"] ;
473 -> 873 ;
874 [label="mse = 0.0\nsamples = 2\nvalue = 0.0", fillcolor="#ffffff"] ;
873 -> 874 ;
875 [label="X[17] <= 9.0\nmse = 0.015\nsamples = 2\nvalue = 0.343", fillcolor="#fdf7f3"] ;
873 -> 875 ;
876 [label="mse = 0.0\nsamples = 1\nvalue = 0.556", fillcolor="#fcf3eb"] ;
875 -> 876 ;
877 [label="mse = -0.0\nsamples = 1\nvalue = 0.273", fillcolor="#fef9f5"] ;
875 -> 877 ;
878 [label="X[15] <= 0.5\nmse = 0.154\nsamples = 4209\nvalue = 0.692", fillcolor="#fcefe7"] ;
472 -> 878 ;
879 [label="X[10] <= -420.5\nmse = 0.196\nsamples = 132\nvalue = 0.576", fillcolor="#fcf2eb"] ;
878 -> 879 ;
880 [label="X[4] <= 69750.0\nmse = 0.203\nsamples = 116\nvalue = 0.537", fillcolor="#fdf3ec"] ;
879 -> 880 ;
881 [label="X[5] <= 2.0\nmse = 0.028\nsamples = 9\nvalue = 0.064", fillcolor="#fffefd"] ;
880 -> 881 ;
882 [label="mse = 0.0\nsamples = 1\nvalue = 0.6", fillcolor="#fcf2ea"] ;
881 -> 882 ;
883 [label="X[17] <= 4.5\nmse = 0.002\nsamples = 8\nvalue = 0.015", fillcolor="#fffffe"] ;
881 -> 883 ;
884 [label="mse = 0.0\nsamples = 3\nvalue = 0.0", fillcolor="#ffffff"] ;
883 -> 884 ;
885 [label="X[17] <= 5.5\nmse = 0.003\nsamples = 5\nvalue = 0.024", fillcolor="#fffefe"] ;
883 -> 885 ;
886 [label="mse = 0.006\nsamples = 2\nvalue = 0.056", fillcolor="#fffefd"] ;
885 -> 886 ;
887 [label="mse = 0.0\nsamples = 3\nvalue = 0.0", fillcolor="#ffffff"] ;
885 -> 887 ;
888 [label="X[1] <= 0.5\nmse = 0.198\nsamples = 107\nvalue = 0.572", fillcolor="#fcf2eb"] ;
880 -> 888 ;
889 [label="X[2] <= 0.5\nmse = 0.206\nsamples = 62\nvalue = 0.667", fillcolor="#fcf0e7"] ;
888 -> 889 ;
890 [label="X[4] <= 146250.0\nmse = 0.173\nsamples = 33\nvalue = 0.81", fillcolor="#fbede2"] ;
889 -> 890 ;
891 [label="X[16] <= 2.5\nmse = 0.042\nsamples = 9\nvalue = 1.163", fillcolor="#fae5d6"] ;
890 -> 891 ;
892 [label="X[17] <= 8.0\nmse = 0.004\nsamples = 7\nvalue = 1.023", fillcolor="#fae8db"] ;
891 -> 892 ;
893 [label="mse = 0.0\nsamples = 6\nvalue = 1.0", fillcolor="#fae9dc"] ;
892 -> 893 ;
894 [label="mse = 0.0\nsamples = 1\nvalue = 1.182", fillcolor="#fae4d5"] ;
892 -> 894 ;
895 [label="mse = -0.0\nsamples = 2\nvalue = 1.444", fillcolor="#f8dfcc"] ;
891 -> 895 ;
896 [label="X[17] <= 7.5\nmse = 0.16\nsamples = 24\nvalue = 0.692", fillcolor="#fcefe7"] ;
890 -> 896 ;
897 [label="X[16] <= 3.5\nmse = 0.087\nsamples = 17\nvalue = 0.824", fillcolor="#fbece2"] ;
896 -> 897 ;
898 [label="X[4] <= 202500.0\nmse = 0.079\nsamples = 15\nvalue = 0.868", fillcolor="#fbece0"] ;
897 -> 898 ;
899 [label="X[9] <= -17630.0\nmse = 0.011\nsamples = 6\nvalue = 1.034", fillcolor="#fae8da"] ;
898 -> 899 ;
900 [label="mse = 0.0\nsamples = 1\nvalue = 1.2", fillcolor="#f9e4d5"] ;
899 -> 900 ;
901 [label="X[16] <= 1.5\nmse = 0.002\nsamples = 5\nvalue = 0.979", fillcolor="#fae9dc"] ;
899 -> 901 ;
902 [label="mse = 0.0\nsamples = 1\nvalue = 0.875", fillcolor="#fbebe0"] ;
901 -> 902 ;
903 [label="mse = 0.0\nsamples = 4\nvalue = 1.0", fillcolor="#fae9dc"] ;
901 -> 903 ;
904 [label="X[17] <= 5.5\nmse = 0.093\nsamples = 9\nvalue = 0.765", fillcolor="#fbeee4"] ;
898 -> 904 ;
905 [label="X[4] <= 258750.0\nmse = 0.15\nsamples = 4\nvalue = 0.56", fillcolor="#fcf2eb"] ;
904 -> 905 ;
906 [label="X[10] <= -3293.0\nmse = 0.09\nsamples = 3\nvalue = 0.7", fillcolor="#fcefe6"] ;
905 -> 906 ;
907 [label="X[9] <= -18237.0\nmse = 0.0\nsamples = 2\nvalue = 1.0", fillcolor="#fae9dc"] ;
906 -> 907 ;
908 [label="mse = 0.0\nsamples = 1\nvalue = 1.0", fillcolor="#fae9dc"] ;
907 -> 908 ;
909 [label="mse = 0.0\nsamples = 1\nvalue = 1.0", fillcolor="#fae9dc"] ;
907 -> 909 ;
910 [label="mse = 0.0\nsamples = 1\nvalue = 0.4", fillcolor="#fdf6f1"] ;
906 -> 910 ;
911 [label="mse = 0.0\nsamples = 1\nvalue = 0.0", fillcolor="#ffffff"] ;
905 -> 911 ;
912 [label="X[10] <= -923.5\nmse = 0.014\nsamples = 5\nvalue = 0.893", fillcolor="#fbebdf"] ;
904 -> 912 ;
913 [label="mse = 0.0\nsamples = 2\nvalue = 1.0", fillcolor="#fae9dc"] ;
912 -> 913 ;
914 [label="X[7] <= 2.0\nmse = 0.005\nsamples = 3\nvalue = 0.786", fillcolor="#fbede3"] ;
912 -> 914 ;
915 [label="mse = 0.005\nsamples = 2\nvalue = 0.81", fillcolor="#fbede2"] ;
914 -> 915 ;
916 [label="mse = -0.0\nsamples = 1\nvalue = 0.714", fillcolor="#fcefe6"] ;
914 -> 916 ;
917 [label="X[17] <= 4.0\nmse = 0.069\nsamples = 2\nvalue = 0.595", fillcolor="#fcf2ea"] ;
897 -> 917 ;
918 [label="mse = 0.0\nsamples = 1\nvalue = 0.333", fillcolor="#fdf8f3"] ;
917 -> 918 ;
919 [label="mse = -0.0\nsamples = 1\nvalue = 0.857", fillcolor="#fbece1"] ;
917 -> 919 ;
920 [label="X[10] <= -1633.5\nmse = 0.197\nsamples = 7\nvalue = 0.391", fillcolor="#fdf6f1"] ;
896 -> 920 ;
921 [label="X[3] <= 0.5\nmse = 0.06\nsamples = 4\nvalue = 0.1", fillcolor="#fffdfb"] ;
920 -> 921 ;
922 [label="mse = 0.0\nsamples = 2\nvalue = 0.0", fillcolor="#ffffff"] ;
921 -> 922 ;
923 [label="X[17] <= 8.5\nmse = 0.109\nsamples = 2\nvalue = 0.233", fillcolor="#fefaf7"] ;
921 -> 923 ;
924 [label="mse = 0.0\nsamples = 1\nvalue = 0.0", fillcolor="#ffffff"] ;
923 -> 924 ;
925 [label="mse = 0.0\nsamples = 1\nvalue = 0.7", fillcolor="#fcefe6"] ;
923 -> 925 ;
926 [label="X[7] <= 2.0\nmse = 0.03\nsamples = 3\nvalue = 0.9", fillcolor="#fbebdf"] ;
920 -> 926 ;
927 [label="mse = 0.0\nsamples = 2\nvalue = 1.0", fillcolor="#fae9dc"] ;
926 -> 927 ;
928 [label="mse = -0.0\nsamples = 1\nvalue = 0.6", fillcolor="#fcf2ea"] ;
926 -> 928 ;
929 [label="X[10] <= -6609.0\nmse = 0.195\nsamples = 29\nvalue = 0.508", fillcolor="#fdf4ed"] ;
889 -> 929 ;
930 [label="mse = 0.0\nsamples = 4\nvalue = 1.0", fillcolor="#fae9dc"] ;
929 -> 930 ;
931 [label="X[17] <= 5.5\nmse = 0.181\nsamples = 25\nvalue = 0.428", fillcolor="#fdf5f0"] ;
929 -> 931 ;
932 [label="X[3] <= 0.5\nmse = 0.145\nsamples = 12\nvalue = 0.256", fillcolor="#fef9f6"] ;
931 -> 932 ;
933 [label="X[10] <= -3047.5\nmse = 0.166\nsamples = 8\nvalue = 0.46", fillcolor="#fdf5ef"] ;
932 -> 933 ;
934 [label="X[9] <= -17412.5\nmse = 0.06\nsamples = 3\nvalue = 0.2", fillcolor="#fefbf8"] ;
933 -> 934 ;
935 [label="mse = 0.0\nsamples = 1\nvalue = 0.5", fillcolor="#fdf4ed"] ;
934 -> 935 ;
936 [label="mse = 0.0\nsamples = 2\nvalue = 0.0", fillcolor="#ffffff"] ;
934 -> 936 ;
937 [label="X[9] <= -9461.0\nmse = 0.138\nsamples = 5\nvalue = 0.72", fillcolor="#fcefe6"] ;
933 -> 937 ;
938 [label="X[9] <= -13204.0\nmse = 0.01\nsamples = 4\nvalue = 0.9", fillcolor="#fbebdf"] ;
937 -> 938 ;
939 [label="mse = 0.0\nsamples = 2\nvalue = 0.8", fillcolor="#fbede3"] ;
938 -> 939 ;
940 [label="X[5] <= 2.0\nmse = 0.0\nsamples = 2\nvalue = 1.0", fillcolor="#fae9dc"] ;
938 -> 940 ;
941 [label="mse = 0.0\nsamples = 1\nvalue = 1.0", fillcolor="#fae9dc"] ;
940 -> 941 ;
942 [label="mse = 0.0\nsamples = 1\nvalue = 1.0", fillcolor="#fae9dc"] ;
940 -> 942 ;
943 [label="mse = 0.0\nsamples = 1\nvalue = 0.0", fillcolor="#ffffff"] ;
937 -> 943 ;
944 [label="mse = 0.0\nsamples = 4\nvalue = 0.0", fillcolor="#ffffff"] ;
932 -> 944 ;
945 [label="X[5] <= 3.0\nmse = 0.161\nsamples = 13\nvalue = 0.591", fillcolor="#fcf2ea"] ;
931 -> 945 ;
946 [label="X[6] <= 3.0\nmse = 0.011\nsamples = 5\nvalue = 0.921", fillcolor="#fbeade"] ;
945 -> 946 ;
947 [label="mse = 0.0\nsamples = 3\nvalue = 1.0", fillcolor="#fae9dc"] ;
946 -> 947 ;
948 [label="X[10] <= -3141.0\nmse = 0.007\nsamples = 2\nvalue = 0.817", fillcolor="#fbede2"] ;
946 -> 948 ;
949 [label="mse = 0.0\nsamples = 1\nvalue = 0.7", fillcolor="#fcefe6"] ;
948 -> 949 ;
950 [label="mse = -0.0\nsamples = 1\nvalue = 0.875", fillcolor="#fbebe0"] ;
948 -> 950 ;
951 [label="X[9] <= -9317.5\nmse = 0.148\nsamples = 8\nvalue = 0.398", fillcolor="#fdf6f1"] ;
945 -> 951 ;
952 [label="X[10] <= -3064.0\nmse = 0.089\nsamples = 7\nvalue = 0.32", fillcolor="#fef8f4"] ;
951 -> 952 ;
953 [label="X[7] <= 2.0\nmse = 0.022\nsamples = 3\nvalue = 0.667", fillcolor="#fcf0e7"] ;
952 -> 953 ;
954 [label="X[17] <= 9.0\nmse = 0.003\nsamples = 2\nvalue = 0.586", fillcolor="#fcf2ea"] ;
953 -> 954 ;
955 [label="mse = 0.0\nsamples = 1\nvalue = 0.667", fillcolor="#fcf0e7"] ;
954 -> 955 ;
956 [label="mse = 0.0\nsamples = 1\nvalue = 0.545", fillcolor="#fcf3ec"] ;
954 -> 956 ;
957 [label="mse = -0.0\nsamples = 1\nvalue = 0.909", fillcolor="#fbebdf"] ;
953 -> 957 ;
958 [label="X[4] <= 108000.0\nmse = 0.02\nsamples = 4\nvalue = 0.122", fillcolor="#fefcfb"] ;
952 -> 958 ;
959 [label="mse = 0.0\nsamples = 1\nvalue = 0.286", fillcolor="#fef9f5"] ;
958 -> 959 ;
960 [label="mse = 0.0\nsamples = 3\nvalue = 0.0", fillcolor="#ffffff"] ;
958 -> 960 ;
961 [label="mse = 0.0\nsamples = 1\nvalue = 1.25", fillcolor="#f9e3d3"] ;
951 -> 961 ;
962 [label="X[4] <= 292500.0\nmse = 0.16\nsamples = 45\nvalue = 0.448", fillcolor="#fdf5ef"] ;
888 -> 962 ;
963 [label="X[12] <= 0.5\nmse = 0.143\nsamples = 40\nvalue = 0.384", fillcolor="#fdf6f1"] ;
962 -> 963 ;
964 [label="X[9] <= -13280.5\nmse = 0.136\nsamples = 31\nvalue = 0.311", fillcolor="#fef8f4"] ;
963 -> 964 ;
965 [label="X[17] <= 3.5\nmse = 0.112\nsamples = 14\nvalue = 0.18", fillcolor="#fefbf9"] ;
964 -> 965 ;
966 [label="mse = 0.0\nsamples = 2\nvalue = 1.0", fillcolor="#fae9dc"] ;
965 -> 966 ;
967 [label="X[17] <= 8.0\nmse = 0.058\nsamples = 12\nvalue = 0.109", fillcolor="#fefdfb"] ;
965 -> 967 ;
968 [label="X[5] <= 2.0\nmse = 0.005\nsamples = 7\nvalue = 0.019", fillcolor="#fffffe"] ;
967 -> 968 ;
969 [label="mse = 0.0\nsamples = 5\nvalue = 0.0", fillcolor="#ffffff"] ;
968 -> 969 ;
970 [label="X[6] <= 2.5\nmse = 0.015\nsamples = 2\nvalue = 0.071", fillcolor="#fffdfc"] ;
968 -> 970 ;
971 [label="mse = 0.0\nsamples = 1\nvalue = 0.0", fillcolor="#ffffff"] ;
970 -> 971 ;
972 [label="mse = 0.0\nsamples = 1\nvalue = 0.286", fillcolor="#fef9f5"] ;
970 -> 972 ;
973 [label="X[4] <= 247500.0\nmse = 0.115\nsamples = 5\nvalue = 0.277", fillcolor="#fef9f5"] ;
967 -> 973 ;
974 [label="X[7] <= 1.5\nmse = 0.075\nsamples = 4\nvalue = 0.555", fillcolor="#fcf3eb"] ;
973 -> 974 ;
975 [label="X[16] <= 3.0\nmse = 0.012\nsamples = 3\nvalue = 0.406", fillcolor="#fdf6f1"] ;
974 -> 975 ;
976 [label="mse = 0.019\nsamples = 2\nvalue = 0.409", fillcolor="#fdf6f1"] ;
975 -> 976 ;
977 [label="mse = 0.0\nsamples = 1\nvalue = 0.4", fillcolor="#fdf6f1"] ;
975 -> 977 ;
978 [label="mse = 0.0\nsamples = 1\nvalue = 1.0", fillcolor="#fae9dc"] ;
974 -> 978 ;
979 [label="mse = 0.0\nsamples = 1\nvalue = 0.0", fillcolor="#ffffff"] ;
973 -> 979 ;
980 [label="X[3] <= 1.5\nmse = 0.124\nsamples = 17\nvalue = 0.447", fillcolor="#fdf5ef"] ;
964 -> 980 ;
981 [label="X[16] <= 1.5\nmse = 0.115\nsamples = 14\nvalue = 0.394", fillcolor="#fdf6f1"] ;
980 -> 981 ;
982 [label="mse = 0.0\nsamples = 1\nvalue = 0.833", fillcolor="#fbece2"] ;
981 -> 982 ;
983 [label="X[17] <= 6.5\nmse = 0.111\nsamples = 13\nvalue = 0.372", fillcolor="#fdf7f2"] ;
981 -> 983 ;
984 [label="X[9] <= -10036.5\nmse = 0.086\nsamples = 7\nvalue = 0.27", fillcolor="#fef9f5"] ;
983 -> 984 ;
985 [label="X[16] <= 2.5\nmse = 0.112\nsamples = 5\nvalue = 0.378", fillcolor="#fdf7f2"] ;
984 -> 985 ;
986 [label="mse = 0.0\nsamples = 1\nvalue = 1.0", fillcolor="#fae9dc"] ;
985 -> 986 ;
987 [label="X[17] <= 3.0\nmse = 0.041\nsamples = 4\nvalue = 0.253", fillcolor="#fef9f6"] ;
985 -> 987 ;
988 [label="mse = 0.0\nsamples = 1\nvalue = 0.0", fillcolor="#ffffff"] ;
987 -> 988 ;
989 [label="X[5] <= 1.0\nmse = 0.031\nsamples = 3\nvalue = 0.317", fillcolor="#fef8f4"] ;
987 -> 989 ;
990 [label="mse = 0.0\nsamples = 1\nvalue = 0.6", fillcolor="#fcf2ea"] ;
989 -> 990 ;
991 [label="X[4] <= 99000.0\nmse = 0.006\nsamples = 2\nvalue = 0.222", fillcolor="#fefaf7"] ;
989 -> 991 ;
992 [label="mse = 0.0\nsamples = 1\nvalue = 0.333", fillcolor="#fdf8f3"] ;
991 -> 992 ;
993 [label="mse = 0.0\nsamples = 1\nvalue = 0.167", fillcolor="#fefbf9"] ;
991 -> 993 ;
994 [label="X[7] <= 0.5\nmse = 0.004\nsamples = 2\nvalue = 0.107", fillcolor="#fffdfb"] ;
984 -> 994 ;
995 [label="mse = 0.0\nsamples = 1\nvalue = 0.143", fillcolor="#fefcfa"] ;
994 -> 995 ;
996 [label="mse = 0.0\nsamples = 1\nvalue = 0.0", fillcolor="#ffffff"] ;
994 -> 996 ;
997 [label="X[10] <= -615.5\nmse = 0.115\nsamples = 6\nvalue = 0.474", fillcolor="#fdf4ee"] ;
983 -> 997 ;
998 [label="X[17] <= 8.5\nmse = 0.071\nsamples = 4\nvalue = 0.354", fillcolor="#fdf7f2"] ;
997 -> 998 ;
999 [label="X[5] <= 2.0\nmse = 0.06\nsamples = 3\nvalue = 0.405", fillcolor="#fdf6f1"] ;
998 -> 999 ;
1000 [label="mse = 0.0\nsamples = 1\nvalue = 1.0", fillcolor="#fae9dc"] ;
999 -> 1000 ;
1001 [label="X[4] <= 135000.0\nmse = 0.002\nsamples = 2\nvalue = 0.306", fillcolor="#fef8f4"] ;
999 -> 1001 ;
1002 [label="mse = 0.0\nsamples = 1\nvalue = 0.25", fillcolor="#fef9f6"] ;
1001 -> 1002 ;
1003 [label="mse = 0.0\nsamples = 1\nvalue = 0.333", fillcolor="#fdf8f3"] ;
1001 -> 1003 ;
1004 [label="mse = 0.0\nsamples = 1\nvalue = 0.0", fillcolor="#ffffff"] ;
998 -> 1004 ;
1005 [label="X[0] <= 0.5\nmse = 0.002\nsamples = 2\nvalue = 0.955", fillcolor="#fbeadd"] ;
997 -> 1005 ;
1006 [label="mse = 0.0\nsamples = 1\nvalue = 1.0", fillcolor="#fae9dc"] ;
1005 -> 1006 ;
1007 [label="mse = -0.0\nsamples = 1\nvalue = 0.909", fillcolor="#fbebdf"] ;
1005 -> 1007 ;
1008 [label="X[17] <= 6.0\nmse = 0.027\nsamples = 3\nvalue = 0.819", fillcolor="#fbede2"] ;
980 -> 1008 ;
1009 [label="mse = 0.0\nsamples = 1\nvalue = 0.6", fillcolor="#fcf2ea"] ;
1008 -> 1009 ;
1010 [label="X[4] <= 112500.0\nmse = 0.005\nsamples = 2\nvalue = 0.929", fillcolor="#fbeade"] ;
1008 -> 1010 ;
1011 [label="mse = 0.0\nsamples = 1\nvalue = 1.0", fillcolor="#fae9dc"] ;
1010 -> 1011 ;
1012 [label="mse = -0.0\nsamples = 1\nvalue = 0.857", fillcolor="#fbece1"] ;
1010 -> 1012 ;
1013 [label="X[17] <= 2.5\nmse = 0.064\nsamples = 9\nvalue = 0.681", fillcolor="#fcf0e7"] ;
963 -> 1013 ;
1014 [label="mse = 0.0\nsamples = 1\nvalue = 1.0", fillcolor="#fae9dc"] ;
1013 -> 1014 ;
1015 [label="X[17] <= 3.5\nmse = 0.052\nsamples = 8\nvalue = 0.617", fillcolor="#fcf1e9"] ;
1013 -> 1015 ;
1016 [label="mse = 0.141\nsamples = 2\nvalue = 0.375", fillcolor="#fdf7f2"] ;
1015 -> 1016 ;
1017 [label="X[17] <= 7.5\nmse = 0.012\nsamples = 6\nvalue = 0.678", fillcolor="#fcf0e7"] ;
1015 -> 1017 ;
1018 [label="X[10] <= -3404.5\nmse = 0.014\nsamples = 3\nvalue = 0.614", fillcolor="#fcf1e9"] ;
1017 -> 1018 ;
1019 [label="mse = 0.018\nsamples = 2\nvalue = 0.619", fillcolor="#fcf1e9"] ;
1018 -> 1019 ;
1020 [label="mse = 0.0\nsamples = 1\nvalue = 0.6", fillcolor="#fcf2ea"] ;
1018 -> 1020 ;
1021 [label="X[7] <= 0.5\nmse = 0.002\nsamples = 3\nvalue = 0.742", fillcolor="#fceee5"] ;
1017 -> 1021 ;
1022 [label="mse = 0.0\nsamples = 1\nvalue = 0.667", fillcolor="#fcf0e7"] ;
1021 -> 1022 ;
1023 [label="X[9] <= -15757.5\nmse = 0.001\nsamples = 2\nvalue = 0.767", fillcolor="#fbeee4"] ;
1021 -> 1023 ;
1024 [label="mse = 0.0\nsamples = 1\nvalue = 0.8", fillcolor="#fbede3"] ;
1023 -> 1024 ;
1025 [label="mse = 0.0\nsamples = 1\nvalue = 0.75", fillcolor="#fceee5"] ;
1023 -> 1025 ;
1026 [label="X[9] <= -12386.5\nmse = 0.015\nsamples = 5\nvalue = 0.937", fillcolor="#fbeade"] ;
962 -> 1026 ;
1027 [label="X[16] <= 3.0\nmse = 0.002\nsamples = 3\nvalue = 0.85", fillcolor="#fbece1"] ;
1026 -> 1027 ;
1028 [label="X[9] <= -15112.5\nmse = 0.0\nsamples = 2\nvalue = 0.868", fillcolor="#fbece0"] ;
1027 -> 1028 ;
1029 [label="mse = 0.0\nsamples = 1\nvalue = 0.9", fillcolor="#fbebdf"] ;
1028 -> 1029 ;
1030 [label="mse = 0.0\nsamples = 1\nvalue = 0.857", fillcolor="#fbece1"] ;
1028 -> 1030 ;
1031 [label="mse = 0.0\nsamples = 1\nvalue = 0.778", fillcolor="#fbeee4"] ;
1027 -> 1031 ;
1032 [label="X[17] <= 6.0\nmse = 0.003\nsamples = 2\nvalue = 1.083", fillcolor="#fae7d9"] ;
1026 -> 1032 ;
1033 [label="mse = 0.0\nsamples = 1\nvalue = 1.0", fillcolor="#fae9dc"] ;
1032 -> 1033 ;
1034 [label="mse = 0.0\nsamples = 1\nvalue = 1.125", fillcolor="#fae6d7"] ;
1032 -> 1034 ;
1035 [label="X[17] <= 5.5\nmse = 0.024\nsamples = 16\nvalue = 0.899", fillcolor="#fbebdf"] ;
879 -> 1035 ;
1036 [label="X[4] <= 94500.0\nmse = 0.009\nsamples = 8\nvalue = 0.97", fillcolor="#fbe9dd"] ;
1035 -> 1036 ;
1037 [label="X[17] <= 3.0\nmse = 0.025\nsamples = 2\nvalue = 0.889", fillcolor="#fbebe0"] ;
1036 -> 1037 ;
1038 [label="mse = 0.0\nsamples = 1\nvalue = 1.0", fillcolor="#fae9dc"] ;
1037 -> 1038 ;
1039 [label="mse = 0.0\nsamples = 1\nvalue = 0.667", fillcolor="#fcf0e7"] ;
1037 -> 1039 ;
1040 [label="mse = -0.0\nsamples = 6\nvalue = 1.0", fillcolor="#fae9dc"] ;
1036 -> 1040 ;
